solver_type L2R_L2LOSS_SVC_DUAL
nr_class 2
label 1 2
nr_feature 41120
bias -1
w
0.002287312939590531 
0.0009738786928231555 
0 
-0.0009738786928231555 
-0.002287312939590531 
0.002480096168133106 
0.001052998753173088 
0 
-0.001052998753173088 
-0.002480096168133106 
0.002942786939072979 
0.0009225063875974264 
0 
-0.0009225063875974264 
-0.002942786939072979 
0.002895553965050566 
0.001311062440058552 
0 
-0.001311062440058552 
-0.002895553965050566 
-0.0006044654549563396 
-0.0007586025262626126 
0 
0.0007586025262626126 
0.0006044654549563396 
0.002709040354126339 
0.0004130964854117 
0 
-0.0004130964854117 
-0.002709040354126339 
0.002060630272669237 
0.000439340208668175 
0 
-0.000439340208668175 
-0.002060630272669237 
0.0004254475351077145 
-0.0007086769858067355 
0 
0.0007086769858067355 
-0.0004254475351077145 
0.0001452654835429258 
-0.0001749724616586242 
0 
0.0001749724616586242 
-0.0001452654835429258 
-0.0001937038671645022 
-0.0005305670929238142 
0 
0.0005305670929238142 
0.0001937038671645022 
0.001201804356243444 
0.0007239429543468989 
0 
-0.0007239429543468989 
-0.001201804356243444 
0.0009096384017341115 
0.0003515363785686655 
0 
-0.0003515363785686655 
-0.0009096384017341115 
0.0004338600350251845 
-0.0005143173419048594 
0 
0.0005143173419048594 
-0.0004338600350251845 
0.0006073150226000488 
0.0006335364069315533 
0 
-0.0006335364069315533 
-0.0006073150226000488 
0.001441381722530362 
0.0006107862565771715 
0 
-0.0006107862565771715 
-0.001441381722530362 
-0.000576170202326072 
-0.0009834405547800964 
0 
0.0009834405547800964 
0.000576170202326072 
0.00227171456168635 
0.001347752398285599 
0 
-0.001347752398285599 
-0.00227171456168635 
0.001551743087692507 
0.0009603535310853573 
0 
-0.0009603535310853573 
-0.001551743087692507 
0.002516622831609401 
0.0005474450519830134 
0 
-0.0005474450519830134 
-0.002516622831609401 
0.002185994335513078 
0.001078474718884835 
0 
-0.001078474718884835 
-0.002185994335513078 
0.001055443214312742 
0.0003187892200436389 
0 
-0.0003187892200436389 
-0.001055443214312742 
0.003007989856574339 
0.001218948404109842 
0 
-0.001218948404109842 
-0.003007989856574339 
0.002144361579095211 
0.0009881524414350384 
0 
-0.0009881524414350384 
-0.002144361579095211 
0.000848894189216235 
9.157110528895859e-05 
0 
-9.157110528895859e-05 
-0.000848894189216235 
0.00149580342772556 
0.0005206820421869108 
0 
-0.0005206820421869108 
-0.00149580342772556 
0.0005512469779444643 
0.0004165097549982426 
0 
-0.0004165097549982426 
-0.0005512469779444643 
0.0009230654886967084 
0.000728407292772983 
0 
-0.000728407292772983 
-0.0009230654886967084 
0.0009547880663665376 
2.141858344810849e-05 
0 
-2.141858344810849e-05 
-0.0009547880663665376 
8.001761244957855e-05 
-0.0002067947110678309 
0 
0.0002067947110678309 
-8.001761244957855e-05 
0.001481374106660376 
0.000311132411801385 
0 
-0.000311132411801385 
-0.001481374106660376 
0.0008493044034995335 
0.0003072387360864066 
0 
-0.0003072387360864066 
-0.0008493044034995335 
-0.000138151678980832 
-0.0004382091406510297 
0 
0.0004382091406510297 
0.000138151678980832 
0.001484282538614503 
0.0007155491586812233 
0 
-0.0007155491586812233 
-0.001484282538614503 
0.001255733591145161 
0.0004488377519102313 
0 
-0.0004488377519102313 
-0.001255733591145161 
0.0009185505909058409 
0.0005171067588311916 
0 
-0.0005171067588311916 
-0.0009185505909058409 
0.002757376524604897 
0.001136326993733845 
0 
-0.001136326993733845 
-0.002757376524604897 
-0.0003661230205125872 
-0.0003310472129578743 
0 
0.0003310472129578743 
0.0003661230205125872 
0.001823959349925455 
0.0009257301911907939 
0 
-0.0009257301911907939 
-0.001823959349925455 
0.002336893409332178 
0.000772032546904759 
0 
-0.000772032546904759 
-0.002336893409332178 
0.0001149522229972622 
-0.0004925396819431005 
0 
0.0004925396819431005 
-0.0001149522229972622 
0.001487192453090758 
0.0001050157471460219 
0 
-0.0001050157471460219 
-0.001487192453090758 
0.0008080216248385171 
2.060711200857813e-05 
0 
-2.060711200857813e-05 
-0.0008080216248385171 
-0.0004574796869400995 
-7.831857996005e-05 
0 
7.831857996005e-05 
0.0004574796869400995 
0.002066631873989661 
0.0008124139876205553 
0 
-0.0008124139876205553 
-0.002066631873989661 
0.0003675629506513813 
0.0001720613786417637 
0 
-0.0001720613786417637 
-0.0003675629506513813 
0.001630258773863652 
0.0002474835017956571 
0 
-0.0002474835017956571 
-0.001630258773863652 
0.0004025803104956084 
-0.0001680883538474672 
0 
0.0001680883538474672 
-0.0004025803104956084 
1.398400642945326e-05 
-0.0009520476551239048 
0 
0.0009520476551239048 
-1.398400642945326e-05 
-0.0008503194136651133 
-0.0003598275550498147 
0 
0.0003598275550498147 
0.0008503194136651133 
0.0003124040406121512 
-0.0003386986361007875 
0 
0.0003386986361007875 
-0.0003124040406121512 
0.001648076128225913 
0.0005448120229125201 
0 
-0.0005448120229125201 
-0.001648076128225913 
0.001843316153535245 
0.001134343162838749 
0 
-0.001134343162838749 
-0.001843316153535245 
-0.000531547948412234 
0.0002497252116969021 
0 
-0.0002497252116969021 
0.000531547948412234 
0.001144482808929265 
0.0004165421272029645 
0 
-0.0004165421272029645 
-0.001144482808929265 
0.001552491974785812 
0.0004493311757814843 
0 
-0.0004493311757814843 
-0.001552491974785812 
7.216891749172187e-05 
-0.0001955446401729952 
0 
0.0001955446401729952 
-7.216891749172187e-05 
-0.0006277109685535371 
-0.0004940197905043158 
0 
0.0004940197905043158 
0.0006277109685535371 
0.0009126597856483276 
0.0006990318059814212 
0 
-0.0006990318059814212 
-0.0009126597856483276 
0.001395157572810313 
0.0007315727092313456 
0 
-0.0007315727092313456 
-0.001395157572810313 
0.001478231610093348 
0.0007790207518185516 
0 
-0.0007790207518185516 
-0.001478231610093348 
0.0008605663000980285 
5.860219579450924e-05 
0 
-5.860219579450924e-05 
-0.0008605663000980285 
0.002089846179030813 
0.0008120209198567121 
0 
-0.0008120209198567121 
-0.002089846179030813 
0.0006738618344705559 
0.0005337457283750523 
0 
-0.0005337457283750523 
-0.0006738618344705559 
-0.001591476983859259 
-0.001870240142763891 
0 
0.001870240142763891 
0.001591476983859259 
0.0009240305485590544 
0.001111515167041516 
0 
-0.001111515167041516 
-0.0009240305485590544 
0.00174767532136368 
0.0009577755117910566 
0 
-0.0009577755117910566 
-0.00174767532136368 
0.002226591547735628 
0.0008576888480965118 
0 
-0.0008576888480965118 
-0.002226591547735628 
0.002526423167725095 
0.00136359938494145 
0 
-0.00136359938494145 
-0.002526423167725095 
0.0025503800503241 
0.001214914465110306 
0 
-0.001214914465110306 
-0.0025503800503241 
0.001208030815403305 
0.0005120868785413167 
0 
-0.0005120868785413167 
-0.001208030815403305 
0.0007210855963114068 
-0.0005152473109785729 
0 
0.0005152473109785729 
-0.0007210855963114068 
-2.467448815753161e-05 
-7.173119637724295e-05 
0 
7.173119637724295e-05 
2.467448815753161e-05 
-0.0007754509977077409 
-0.0007702747433684845 
0 
0.0007702747433684845 
0.0007754509977077409 
0.0003656610426622686 
-0.0005183737511805811 
0 
0.0005183737511805811 
-0.0003656610426622686 
-0.0001323161063856132 
-0.0002348414282382475 
0 
0.0002348414282382475 
0.0001323161063856132 
0.0009549847799198959 
0.00025497944880999 
0 
-0.00025497944880999 
-0.0009549847799198959 
0.0001847489138161726 
-0.0006515903718902009 
0 
0.0006515903718902009 
-0.0001847489138161726 
0.0008189196958666002 
-4.500234269158852e-05 
0 
4.500234269158852e-05 
-0.0008189196958666002 
0.000187925092913617 
-6.115336754771129e-05 
0 
6.115336754771129e-05 
-0.000187925092913617 
-0.0008780250105404157 
-0.0007888616791752261 
0 
0.0007888616791752261 
0.0008780250105404157 
0.0008191948923894658 
0.0002740537154801573 
0 
-0.0002740537154801573 
-0.0008191948923894658 
0.002600813725326768 
0.0009254238770012687 
0 
-0.0009254238770012687 
-0.002600813725326768 
0.001336819055266793 
0.0002212791685656151 
0 
-0.0002212791685656151 
-0.001336819055266793 
0.001252760637194151 
0.000945408314701839 
0 
-0.000945408314701839 
-0.001252760637194151 
0.0003096781129506948 
0.0004598339052440438 
0 
-0.0004598339052440438 
-0.0003096781129506948 
0.003673649976438608 
0.001526974937848452 
0 
-0.001526974937848452 
-0.003673649976438608 
0.001590767802397484 
0.0007369109796686336 
0 
-0.0007369109796686336 
-0.001590767802397484 
-0.0004227309708449939 
0.0001754233288483583 
0 
-0.0001754233288483583 
0.0004227309708449939 
-1.07107836762174e-05 
0.0007317598999733698 
0 
-0.0007317598999733698 
1.07107836762174e-05 
0.001631163516578436 
0.0007979908433531734 
0 
-0.0007979908433531734 
-0.001631163516578436 
0.000523000671869387 
0.0005687754692813168 
0 
-0.0005687754692813168 
-0.000523000671869387 
0.002329893554930178 
0.001151715432032301 
0 
-0.001151715432032301 
-0.002329893554930178 
0.0004357693441475033 
7.737765713087224e-06 
0 
-7.737765713087224e-06 
-0.0004357693441475033 
0.001081847889335266 
0.0002043192951054294 
0 
-0.0002043192951054294 
-0.001081847889335266 
0.0002827243607732206 
-0.0003093681807276335 
0 
0.0003093681807276335 
-0.0002827243607732206 
-0.001257711936088211 
-0.001245520256650027 
0 
0.001245520256650027 
0.001257711936088211 
0.0003938263616934212 
-0.000166393018637118 
0 
0.000166393018637118 
-0.0003938263616934212 
0.002708728445822747 
0.001457353069140314 
0 
-0.001457353069140314 
-0.002708728445822747 
0.00184526753414207 
0.001295662680784831 
0 
-0.001295662680784831 
-0.00184526753414207 
0.002997122823108933 
0.001837187033501758 
0 
-0.001837187033501758 
-0.002997122823108933 
0.001507388497922073 
0.0005639790831435766 
0 
-0.0005639790831435766 
-0.001507388497922073 
0.002782983801454414 
0.001948338012111608 
0 
-0.001948338012111608 
-0.002782983801454414 
0.002937945269110921 
0.001551587067596656 
0 
-0.001551587067596656 
-0.002937945269110921 
6.381578462461608e-05 
-1.659464070002547e-05 
0 
1.659464070002547e-05 
-6.381578462461608e-05 
0.0003814604283695987 
-0.0001005868473412466 
0 
0.0001005868473412466 
-0.0003814604283695987 
0.001592861534084532 
0.0006772659385683032 
0 
-0.0006772659385683032 
-0.001592861534084532 
0.003134587396868166 
0.001622554891116923 
0 
-0.001622554891116923 
-0.003134587396868166 
0.003073965668356048 
0.001319553461123577 
0 
-0.001319553461123577 
-0.003073965668356048 
0.001757772160996273 
0.001025560036327525 
0 
-0.001025560036327525 
-0.001757772160996273 
0.002221565686343055 
0.0007717267250385152 
0 
-0.0007717267250385152 
-0.002221565686343055 
-0.0006599186219454517 
-0.00056886826119057 
0 
0.00056886826119057 
0.0006599186219454517 
-0.0003664460008512417 
-0.001002882706104931 
0 
0.001002882706104931 
0.0003664460008512417 
0.001104596491388375 
0.0008345612058588649 
0 
-0.0008345612058588649 
-0.001104596491388375 
-0.0005137956054361788 
0.0001987449112496068 
0 
-0.0001987449112496068 
0.0005137956054361788 
-0.000782968125240028 
-0.0003700696903561688 
0 
0.0003700696903561688 
0.000782968125240028 
0.001084523601069212 
0.0002635711786489739 
0 
-0.0002635711786489739 
-0.001084523601069212 
0.002145771350732107 
0.0008319664974604195 
0 
-0.0008319664974604195 
-0.002145771350732107 
0.00132602432103659 
0.0001432680721448298 
0 
-0.0001432680721448298 
-0.00132602432103659 
0.001241751091282465 
0.0001489735483255585 
0 
-0.0001489735483255585 
-0.001241751091282465 
-4.625737569251074e-05 
-0.0004220284526330583 
0 
0.0004220284526330583 
4.625737569251074e-05 
3.058596625809013e-05 
-0.0003469919511915881 
0 
0.0003469919511915881 
-3.058596625809013e-05 
0.000278379935044899 
-0.0003699901257665097 
0 
0.0003699901257665097 
-0.000278379935044899 
-0.0002415191905131253 
-0.000396327050691554 
0 
0.000396327050691554 
0.0002415191905131253 
-0.0006865519898003187 
-0.0004021104624218953 
0 
0.0004021104624218953 
0.0006865519898003187 
-0.0005466229175811436 
5.954183554105085e-06 
0 
-5.954183554105085e-06 
0.0005466229175811436 
-0.0008487414420241238 
4.501877831166427e-05 
0 
-4.501877831166427e-05 
0.0008487414420241238 
0.001449656646605974 
0.0006811504866101348 
0 
-0.0006811504866101348 
-0.001449656646605974 
-0.001515562649348952 
-0.001879668175179151 
0 
0.001879668175179151 
0.001515562649348952 
0.0004922428700366922 
0.0002006390302043619 
0 
-0.0002006390302043619 
-0.0004922428700366922 
0.001617628931875143 
5.788467683077211e-05 
0 
-5.788467683077211e-05 
-0.001617628931875143 
0.0003985755489794443 
-0.0005602025047379345 
0 
0.0005602025047379345 
-0.0003985755489794443 
-0.0003497735461568311 
-0.0007882034540821768 
0 
0.0007882034540821768 
0.0003497735461568311 
0.001245989286160622 
-0.0002031684112636183 
0 
0.0002031684112636183 
-0.001245989286160622 
-0.001257948722583991 
-0.000925609260667484 
0 
0.000925609260667484 
0.001257948722583991 
-6.123317444139332e-06 
-0.0004702389458552819 
0 
0.0004702389458552819 
6.123317444139332e-06 
-0.0006180715761942195 
-0.0003883891216548396 
0 
0.0003883891216548396 
0.0006180715761942195 
0.0003613274365919638 
0.000349288090643199 
0 
-0.000349288090643199 
-0.0003613274365919638 
0.00191375800140616 
0.0007462984391716507 
0 
-0.0007462984391716507 
-0.00191375800140616 
0.002585378506773121 
0.0007163993082609238 
0 
-0.0007163993082609238 
-0.002585378506773121 
-0.001484744363274268 
-0.000975926184716411 
0 
0.000975926184716411 
0.001484744363274268 
-0.001042236433060189 
-0.0004871887292408979 
0 
0.0004871887292408979 
0.001042236433060189 
-0.0006882302761291791 
-0.0001209620159977332 
0 
0.0001209620159977332 
0.0006882302761291791 
0.001410324972407807 
0.001055297602149818 
0 
-0.001055297602149818 
-0.001410324972407807 
-0.0003654156453501977 
-0.001355070291746326 
0 
0.001355070291746326 
0.0003654156453501977 
0.002338440578395752 
0.0006749064039086851 
0 
-0.0006749064039086851 
-0.002338440578395752 
0.0002946545275086745 
-0.0003486523540340756 
0 
0.0003486523540340756 
-0.0002946545275086745 
0.001821151737849114 
0.000247062366174458 
0 
-0.000247062366174458 
-0.001821151737849114 
0.001040177376449887 
0.0004113489281568407 
0 
-0.0004113489281568407 
-0.001040177376449887 
-0.002545202217374294 
-0.0007133621351181747 
0 
0.0007133621351181747 
0.002545202217374294 
-0.001090948905841318 
0.0001237955767843538 
0 
-0.0001237955767843538 
0.001090948905841318 
0.0006760465359312867 
7.055121621873631e-05 
0 
-7.055121621873631e-05 
-0.0006760465359312867 
0.001303565268091203 
0.0002540208334882843 
0 
-0.0002540208334882843 
-0.001303565268091203 
0.001779478714225911 
0.0003270857795291057 
0 
-0.0003270857795291057 
-0.001779478714225911 
0.001748241752088309 
0.000190966349713128 
0 
-0.000190966349713128 
-0.001748241752088309 
0.001753344386659129 
0.0003289552666219466 
0 
-0.0003289552666219466 
-0.001753344386659129 
-0.000158096019696696 
-0.0001854759636294686 
0 
0.0001854759636294686 
0.000158096019696696 
-0.003528823103481289 
-0.001374587797419482 
0 
0.001374587797419482 
0.003528823103481289 
-0.002025840429793444 
-0.0002093803746572839 
0 
0.0002093803746572839 
0.002025840429793444 
-0.001329771201846267 
-0.0008062787752595307 
0 
0.0008062787752595307 
0.001329771201846267 
0.001308715504000077 
-0.0001557759212361307 
0 
0.0001557759212361307 
-0.001308715504000077 
-0.001416130119150607 
-0.0004984343743641806 
0 
0.0004984343743641806 
0.001416130119150607 
-0.001457771810568627 
-0.001088837075220452 
0 
0.001088837075220452 
0.001457771810568627 
-0.00147598308525574 
-0.001604520453130242 
0 
0.001604520453130242 
0.00147598308525574 
-0.002414170199687366 
-0.001350040079808009 
0 
0.001350040079808009 
0.002414170199687366 
-0.003313121387070971 
-0.001297737140229716 
0 
0.001297737140229716 
0.003313121387070971 
-0.003496899874468729 
-0.001056044735396345 
0 
0.001056044735396345 
0.003496899874468729 
-0.001886891690862931 
-0.0007912143912127127 
0 
0.0007912143912127127 
0.001886891690862931 
-0.001624823709886149 
-0.0007585529197503587 
0 
0.0007585529197503587 
0.001624823709886149 
-0.0007807605498584254 
-0.0002146771217160787 
0 
0.0002146771217160787 
0.0007807605498584254 
-0.0007354279246531965 
-0.0006149323676825754 
0 
0.0006149323676825754 
0.0007354279246531965 
-0.002064812065914593 
-0.001314709207181871 
0 
0.001314709207181871 
0.002064812065914593 
-0.003264380746774512 
-0.001590897277676361 
0 
0.001590897277676361 
0.003264380746774512 
-0.00231349859916057 
-0.00146671902535214 
0 
0.00146671902535214 
0.00231349859916057 
-0.002031423985740238 
-0.001126762372865588 
0 
0.001126762372865588 
0.002031423985740238 
-0.001567475600095076 
-0.001459967016293801 
0 
0.001459967016293801 
0.001567475600095076 
0.0001555077071195937 
-0.0004856003472241307 
0 
0.0004856003472241307 
-0.0001555077071195937 
7.045601746428959e-05 
0.0001079364262511658 
0 
-0.0001079364262511658 
-7.045601746428959e-05 
0.00038857589355504 
-0.0003860542073702383 
0 
0.0003860542073702383 
-0.00038857589355504 
0.0008467001126184822 
-0.0006512922418851054 
0 
0.0006512922418851054 
-0.0008467001126184822 
0.002200728889526661 
0.0005135392110334088 
0 
-0.0005135392110334088 
-0.002200728889526661 
-0.000410332897720752 
-0.0007468457136580136 
0 
0.0007468457136580136 
0.000410332897720752 
-0.0002260231755949146 
-0.0007246129927094572 
0 
0.0007246129927094572 
0.0002260231755949146 
-0.0008439486500269034 
-4.692507538081293e-05 
0 
4.692507538081293e-05 
0.0008439486500269034 
-0.000622202039317281 
0.0001895821906869946 
0 
-0.0001895821906869946 
0.000622202039317281 
-0.0004390654018827895 
-0.0005095921068949599 
0 
0.0005095921068949599 
0.0004390654018827895 
-0.0008411049961627958 
-0.0005660557769988709 
0 
0.0005660557769988709 
0.0008411049961627958 
0.0008217370327843627 
-0.000373422546181247 
0 
0.000373422546181247 
-0.0008217370327843627 
0.0009817233557159863 
-6.828152813542929e-05 
0 
6.828152813542929e-05 
-0.0009817233557159863 
5.628683651400144e-05 
0.0001662654263550272 
0 
-0.0001662654263550272 
-5.628683651400144e-05 
-0.0005482535413303026 
-0.0007168887854219058 
0 
0.0007168887854219058 
0.0005482535413303026 
0.0005183696473776657 
-0.0001182802528928598 
0 
0.0001182802528928598 
-0.0005183696473776657 
0.001640323290587452 
0.000804825039370719 
0 
-0.000804825039370719 
-0.001640323290587452 
8.596472690673674e-05 
-0.0001709708547574268 
0 
0.0001709708547574268 
-8.596472690673674e-05 
0.001563284716803194 
0.0003470954919536229 
0 
-0.0003470954919536229 
-0.001563284716803194 
0.0003369780241687499 
-0.0002651395859700286 
0 
0.0002651395859700286 
-0.0003369780241687499 
0.001105369124730505 
-0.0001756242311036917 
0 
0.0001756242311036917 
-0.001105369124730505 
0.002722150083793315 
0.0008755432693306327 
0 
-0.0008755432693306327 
-0.002722150083793315 
0.0008951128943420563 
0.0006122622713742557 
0 
-0.0006122622713742557 
-0.0008951128943420563 
0.0001944079037069411 
0.0002817562417512102 
0 
-0.0002817562417512102 
-0.0001944079037069411 
0.001311986489062825 
0.00115548097221503 
0 
-0.00115548097221503 
-0.001311986489062825 
0.0002120722122367249 
-8.251268132789024e-05 
0 
8.251268132789024e-05 
-0.0002120722122367249 
0.001324043761703624 
0.0002534481265213874 
0 
-0.0002534481265213874 
-0.001324043761703624 
0.0004815989871047816 
1.08299974526284e-05 
0 
-1.08299974526284e-05 
-0.0004815989871047816 
0.0007242195752883375 
0.0001109077805220234 
0 
-0.0001109077805220234 
-0.0007242195752883375 
-0.001592214276148719 
-0.0006966236047931246 
0 
0.0006966236047931246 
0.001592214276148719 
0.001218708388657707 
0.0004927223025948858 
0 
-0.0004927223025948858 
-0.001218708388657707 
0.0002555177357876984 
7.087003392324667e-06 
0 
-7.087003392324667e-06 
-0.0002555177357876984 
-0.0003876604676122018 
-0.001067326577834209 
0 
0.001067326577834209 
0.0003876604676122018 
-0.0001350357234724184 
0.0001015128618042451 
0 
-0.0001015128618042451 
0.0001350357234724184 
0.001700878910749766 
0.0005700382353162028 
0 
-0.0005700382353162028 
-0.001700878910749766 
0.001914716953079709 
0.0008711497608039574 
0 
-0.0008711497608039574 
-0.001914716953079709 
0.002814062253682983 
0.0008548239380787679 
0 
-0.0008548239380787679 
-0.002814062253682983 
0.002728771973205018 
0.00120738360087378 
0 
-0.00120738360087378 
-0.002728771973205018 
0.002257320679764023 
0.0009740221807153516 
0 
-0.0009740221807153516 
-0.002257320679764023 
-0.0001109454889747004 
0.0001436103477873101 
0 
-0.0001436103477873101 
0.0001109454889747004 
0.001250120029101117 
0.0009598697084040412 
0 
-0.0009598697084040412 
-0.001250120029101117 
-0.001555574682861592 
-0.0006994129446760291 
0 
0.0006994129446760291 
0.001555574682861592 
-0.0004981120693125658 
-9.248614849300592e-05 
0 
9.248614849300592e-05 
0.0004981120693125658 
-0.0002995848800195814 
0.0001351271954891207 
0 
-0.0001351271954891207 
0.0002995848800195814 
0.00208758422709279 
0.000916333994280881 
0 
-0.000916333994280881 
-0.00208758422709279 
-0.0003922637512080395 
-0.000167260415132139 
0 
0.000167260415132139 
0.0003922637512080395 
-0.0003655258138101852 
-0.0002409940376057532 
0 
0.0002409940376057532 
0.0003655258138101852 
0.0005026448559414219 
0.0004891224166536204 
0 
-0.0004891224166536204 
-0.0005026448559414219 
-0.003207227248113734 
-0.003362936562961782 
0 
0.003362936562961782 
0.003207227248113734 
0.001528430125427391 
0.0007177730337829347 
0 
-0.0007177730337829347 
-0.001528430125427391 
0.00118636700811131 
0.0005628261911770696 
0 
-0.0005628261911770696 
-0.00118636700811131 
0.0008805796130901919 
-0.0001572608249211501 
0 
0.0001572608249211501 
-0.0008805796130901919 
-0.0007196283975132394 
-0.0008026776544265695 
0 
0.0008026776544265695 
0.0007196283975132394 
0.001078581626701368 
0.0001590796665159498 
0 
-0.0001590796665159498 
-0.001078581626701368 
0.001713365239769143 
0.0003061917991802343 
0 
-0.0003061917991802343 
-0.001713365239769143 
0.0003334284575509068 
-0.0003449721316644902 
0 
0.0003449721316644902 
-0.0003334284575509068 
0.0002230884097069857 
0.0002087081654361618 
0 
-0.0002087081654361618 
-0.0002230884097069857 
0.0003230954009892634 
0.0004451970760065904 
0 
-0.0004451970760065904 
-0.0003230954009892634 
0.0007796417467711087 
0.0005759356883368622 
0 
-0.0005759356883368622 
-0.0007796417467711087 
-0.0002880951037996339 
-3.119011918991077e-05 
0 
3.119011918991077e-05 
0.0002880951037996339 
0.0001810907940917664 
3.541299035404752e-05 
0 
-3.541299035404752e-05 
-0.0001810907940917664 
0.000213388627149292 
6.205985516719049e-05 
0 
-6.205985516719049e-05 
-0.000213388627149292 
3.384342911852538e-05 
0.0003036362252657108 
0 
-0.0003036362252657108 
-3.384342911852538e-05 
-0.0002610759829684219 
-0.0001574844906529334 
0 
0.0001574844906529334 
0.0002610759829684219 
-0.003087557414559417 
-0.00249478753589066 
0 
0.00249478753589066 
0.003087557414559417 
0.001654700146699552 
0.0008035981375895405 
0 
-0.0008035981375895405 
-0.001654700146699552 
0.001429011622656353 
0.0005631698493337781 
0 
-0.0005631698493337781 
-0.001429011622656353 
0.001024753159354169 
0.0002454730870944453 
0 
-0.0002454730870944453 
-0.001024753159354169 
0.001035819626946408 
-0.0002453812691221743 
0 
0.0002453812691221743 
-0.001035819626946408 
0.001874063385981941 
-8.963136482680384e-05 
0 
8.963136482680384e-05 
-0.001874063385981941 
0.0007725824091864336 
-0.0001704783682355464 
0 
0.0001704783682355464 
-0.0007725824091864336 
0.0009153488105826828 
-6.287872978012693e-05 
0 
6.287872978012693e-05 
-0.0009153488105826828 
-0.001275750873041605 
-0.0008145931489951452 
0 
0.0008145931489951452 
0.001275750873041605 
-0.001368373219878406 
-0.0003630835808442585 
0 
0.0003630835808442585 
0.001368373219878406 
-0.0006104395435282506 
-3.766604173262106e-05 
0 
3.766604173262106e-05 
0.0006104395435282506 
0.0008370808061794762 
0.0003257939850099972 
0 
-0.0003257939850099972 
-0.0008370808061794762 
0.0006516512824893471 
0.0003867511379282614 
0 
-0.0003867511379282614 
-0.0006516512824893471 
-0.000871119277729962 
-0.0003574958799003344 
0 
0.0003574958799003344 
0.000871119277729962 
-0.000164246288548894 
0.0002638578230923521 
0 
-0.0002638578230923521 
0.000164246288548894 
0.001790453095126105 
0.001106873614051804 
0 
-0.001106873614051804 
-0.001790453095126105 
-0.001961287904915379 
-0.002290572469016567 
0 
0.002290572469016567 
0.001961287904915379 
0.002213214060552573 
0.001544463959710192 
0 
-0.001544463959710192 
-0.002213214060552573 
-0.0003644831071013494 
-0.0002034342880159897 
0 
0.0002034342880159897 
0.0003644831071013494 
0.0009093730173465481 
-2.265473211457864e-05 
0 
2.265473211457864e-05 
-0.0009093730173465481 
0.0006535871660464078 
-0.0006566290451235408 
0 
0.0006566290451235408 
-0.0006535871660464078 
0.0001393248462459505 
-0.0007093834305501093 
0 
0.0007093834305501093 
-0.0001393248462459505 
0.000734826595842433 
-0.0002593496722418628 
0 
0.0002593496722418628 
-0.000734826595842433 
0.001915304751167493 
0.0007706844586048437 
0 
-0.0007706844586048437 
-0.001915304751167493 
-0.0005267559045256002 
-0.0005780773738231133 
0 
0.0005780773738231133 
0.0005267559045256002 
0.0004835275566821603 
0.0001909467849892272 
0 
-0.0001909467849892272 
-0.0004835275566821603 
0.001474581036310552 
0.0005367477898611365 
0 
-0.0005367477898611365 
-0.001474581036310552 
0.0007917302076712397 
0.0003854626232375277 
0 
-0.0003854626232375277 
-0.0007917302076712397 
0.0005866052069567238 
0.0009556691521422526 
0 
-0.0009556691521422526 
-0.0005866052069567238 
-0.001357218069936462 
-0.0002206675653743075 
0 
0.0002206675653743075 
0.001357218069936462 
0.0003998584552459644 
9.928678190444364e-05 
0 
-9.928678190444364e-05 
-0.0003998584552459644 
0.001014341162430148 
0.0005729598234458436 
0 
-0.0005729598234458436 
-0.001014341162430148 
-0.0003358277816299503 
-0.001473552048235746 
0 
0.001473552048235746 
0.0003358277816299503 
0.0009073122387472497 
0.0002613160899262615 
0 
-0.0002613160899262615 
-0.0009073122387472497 
0.00350145835383228 
0.0009542136242405605 
0 
-0.0009542136242405605 
-0.00350145835383228 
0.00414468107085633 
0.001333847713474904 
0 
-0.001333847713474904 
-0.00414468107085633 
0.001883242155863216 
-0.0001101280988347946 
0 
0.0001101280988347946 
-0.001883242155863216 
0.002020440013147668 
-3.802318143001546e-05 
0 
3.802318143001546e-05 
-0.002020440013147668 
0.0008140637748339768 
0.0006156846681036878 
0 
-0.0006156846681036878 
-0.0008140637748339768 
-0.0002335277936824516 
0.0001022131401026537 
0 
-0.0001022131401026537 
0.0002335277936824516 
0.001925065786706464 
0.001474645604510974 
0 
-0.001474645604510974 
-0.001925065786706464 
7.04859571357051e-05 
-0.0005887908183521102 
0 
0.0005887908183521102 
-7.04859571357051e-05 
0.004292402648760076 
0.001018063275461552 
0 
-0.001018063275461552 
-0.004292402648760076 
0.003044917374560168 
0.0003844423140073998 
0 
-0.0003844423140073998 
-0.003044917374560168 
0.002024929026414772 
-0.0002605698181497205 
0 
0.0002605698181497205 
-0.002024929026414772 
0.0009070576069729329 
-0.0002046043544994957 
0 
0.0002046043544994957 
-0.0009070576069729329 
0.00164264599138993 
0.0003224073331581936 
0 
-0.0003224073331581936 
-0.00164264599138993 
-0.0001593379106710568 
-0.0002410725272311048 
0 
0.0002410725272311048 
0.0001593379106710568 
0.001204375358924863 
-0.0001333555721403422 
0 
0.0001333555721403422 
-0.001204375358924863 
-0.0001686887025468196 
0.0001539629119138638 
0 
-0.0001539629119138638 
0.0001686887025468196 
0.0007160572122094882 
-0.0002527807335861438 
0 
0.0002527807335861438 
-0.0007160572122094882 
0.001083109106202282 
0.0001931517404705022 
0 
-0.0001931517404705022 
-0.001083109106202282 
0.001320943354720711 
0.0003804234887813561 
0 
-0.0003804234887813561 
-0.001320943354720711 
0.002739294651321678 
0.0009382900423921153 
0 
-0.0009382900423921153 
-0.002739294651321678 
0.002187937139292995 
0.0007172539896941197 
0 
-0.0007172539896941197 
-0.002187937139292995 
-0.0003141691386067246 
-0.0004408900198434647 
0 
0.0004408900198434647 
0.0003141691386067246 
-0.0003857334994854509 
-4.297760141788655e-05 
0 
4.297760141788655e-05 
0.0003857334994854509 
0.0008463795253667487 
0.0001730735154418881 
0 
-0.0001730735154418881 
-0.0008463795253667487 
0.001513439547634969 
0.0004602589243738543 
0 
-0.0004602589243738543 
-0.001513439547634969 
0.002675802819324389 
0.0008360688209755396 
0 
-0.0008360688209755396 
-0.002675802819324389 
0.00261473664964726 
0.000427466920547522 
0 
-0.000427466920547522 
-0.00261473664964726 
0.001260663465686695 
0.0002938395018895793 
0 
-0.0002938395018895793 
-0.001260663465686695 
0.0003903230949658914 
-0.0002409213358383133 
0 
0.0002409213358383133 
-0.0003903230949658914 
0.001395862681094508 
0.0008221912948800119 
0 
-0.0008221912948800119 
-0.001395862681094508 
0.0008409498167879586 
-0.0001238123676464708 
0 
0.0001238123676464708 
-0.0008409498167879586 
-0.0002081816170612706 
0.0004087924448153321 
0 
-0.0004087924448153321 
0.0002081816170612706 
0.001913686917298656 
0.0003343914675153658 
0 
-0.0003343914675153658 
-0.001913686917298656 
0.003400404357564452 
0.001538508505521747 
0 
-0.001538508505521747 
-0.003400404357564452 
0.0023076537745707 
0.000685621804926941 
0 
-0.000685621804926941 
-0.0023076537745707 
0.002305064515967426 
0.0007716341292047481 
0 
-0.0007716341292047481 
-0.002305064515967426 
0.001979743202680615 
0.0007804439912326432 
0 
-0.0007804439912326432 
-0.001979743202680615 
0.0005916092104025559 
0.0002428464004028393 
0 
-0.0002428464004028393 
-0.0005916092104025559 
0.001852385076106479 
0.001714103046382085 
0 
-0.001714103046382085 
-0.001852385076106479 
0.0009615990738628904 
0.0002981702227649646 
0 
-0.0002981702227649646 
-0.0009615990738628904 
0.001878788815039965 
0.001037498227455076 
0 
-0.001037498227455076 
-0.001878788815039965 
0.002811216555970748 
0.001030492523311118 
0 
-0.001030492523311118 
-0.002811216555970748 
0.00214420230564181 
0.0005058320865103036 
0 
-0.0005058320865103036 
-0.00214420230564181 
0.003006649069751009 
0.0008609642586996109 
0 
-0.0008609642586996109 
-0.003006649069751009 
0.002715042420341267 
0.0003906136011478059 
0 
-0.0003906136011478059 
-0.002715042420341267 
0.0001057202512819397 
4.322502273718541e-05 
0 
-4.322502273718541e-05 
-0.0001057202512819397 
0.0005835284384422397 
-0.001246902661605069 
0 
0.001246902661605069 
-0.0005835284384422397 
-0.0001914881950139763 
-0.0002693725357372152 
0 
0.0002693725357372152 
0.0001914881950139763 
0.002022559374024149 
0.0009880519768796813 
0 
-0.0009880519768796813 
-0.002022559374024149 
0.002703412281044704 
0.0007611038466242518 
0 
-0.0007611038466242518 
-0.002703412281044704 
0.001779361949278931 
4.062707230095444e-05 
0 
-4.062707230095444e-05 
-0.001779361949278931 
0.001850647479585613 
0.0006050672068145354 
0 
-0.0006050672068145354 
-0.001850647479585613 
0.0009719813824005782 
-2.768009723228865e-06 
0 
2.768009723228865e-06 
-0.0009719813824005782 
0.0004378533140086659 
-0.0002667500422736745 
0 
0.0002667500422736745 
-0.0004378533140086659 
0.0003593050924458049 
0.0003150125693922582 
0 
-0.0003150125693922582 
-0.0003593050924458049 
0.000220288917404967 
-0.0002342529386334071 
0 
0.0002342529386334071 
-0.000220288917404967 
0.0003128910905228165 
0.0005053068697428857 
0 
-0.0005053068697428857 
-0.0003128910905228165 
-0.0002060196220638194 
0.0004044747111997911 
0 
-0.0004044747111997911 
0.0002060196220638194 
0.0003314938952499355 
0.00103130944845105 
0 
-0.00103130944845105 
-0.0003314938952499355 
0.0001786499004475168 
0.0005766843992414285 
0 
-0.0005766843992414285 
-0.0001786499004475168 
0.001516483909545102 
0.000226069870748955 
0 
-0.000226069870748955 
-0.001516483909545102 
-0.0004650622989866354 
-2.336748026813793e-05 
0 
2.336748026813793e-05 
0.0004650622989866354 
-0.001729000700123178 
-0.002121745942711938 
0 
0.002121745942711938 
0.001729000700123178 
0.0007053652070909186 
0.0002493124058624221 
0 
-0.0002493124058624221 
-0.0007053652070909186 
0.001773816069072319 
0.0004304838371155343 
0 
-0.0004304838371155343 
-0.001773816069072319 
0.0001449178659027613 
-0.0004184264236840607 
0 
0.0004184264236840607 
-0.0001449178659027613 
-0.0006706030526556327 
-0.001040938103462422 
0 
0.001040938103462422 
0.0006706030526556327 
-0.0004314386781896727 
-0.0002404953678659884 
0 
0.0002404953678659884 
0.0004314386781896727 
-0.0008725059108045001 
-0.0003314340898591924 
0 
0.0003314340898591924 
0.0008725059108045001 
-0.0005035241701146734 
-0.0003397268102505503 
0 
0.0003397268102505503 
0.0005035241701146734 
0.0007049139993013751 
-0.0002076924225582412 
0 
0.0002076924225582412 
-0.0007049139993013751 
-0.002659378856886725 
-0.001236729885365406 
0 
0.001236729885365406 
0.002659378856886725 
0.0009096571631982608 
-0.0005531609401836757 
0 
0.0005531609401836757 
-0.0009096571631982608 
6.90041839816584e-05 
-0.0003891063511137987 
0 
0.0003891063511137987 
-6.90041839816584e-05 
0.0003385167631976042 
-5.589812735246536e-05 
0 
5.589812735246536e-05 
-0.0003385167631976042 
-0.001237446524341954 
-0.0007069695307092411 
0 
0.0007069695307092411 
0.001237446524341954 
-0.00174704096095933 
-0.001058139360029347 
0 
0.001058139360029347 
0.00174704096095933 
-0.001226189247772779 
-0.0002228094296657033 
0 
0.0002228094296657033 
0.001226189247772779 
-0.002056268978192195 
-0.002003815148775471 
0 
0.002003815148775471 
0.002056268978192195 
0.001831041780712038 
0.00191185891475886 
0 
-0.00191185891475886 
-0.001831041780712038 
0.001134189364748723 
0.0007776395444136789 
0 
-0.0007776395444136789 
-0.001134189364748723 
0.001864820797729472 
0.0006934602203919474 
0 
-0.0006934602203919474 
-0.001864820797729472 
0.002670937092522369 
0.0004072913888130779 
0 
-0.0004072913888130779 
-0.002670937092522369 
0.002705060260675646 
0.001192122812405497 
0 
-0.001192122812405497 
-0.002705060260675646 
0.001529092837540213 
0.0001133159087534038 
0 
-0.0001133159087534038 
-0.001529092837540213 
5.801993269806021e-05 
0.0001292433947240318 
0 
-0.0001292433947240318 
-5.801993269806021e-05 
-0.0001388568146430429 
-7.950793605532144e-05 
0 
7.950793605532144e-05 
0.0001388568146430429 
-0.001807685982507085 
-4.768263374969728e-07 
0 
4.768263374969728e-07 
0.001807685982507085 
-0.0001611352354866855 
-2.861506431495623e-05 
0 
2.861506431495623e-05 
0.0001611352354866855 
-3.769287625020389e-05 
-0.0001578533249146959 
0 
0.0001578533249146959 
3.769287625020389e-05 
0.000464630403794561 
0.0002263434199749531 
0 
-0.0002263434199749531 
-0.000464630403794561 
0.0005838185754479598 
4.048615195983755e-05 
0 
-4.048615195983755e-05 
-0.0005838185754479598 
0.0007019239071182174 
0.0003418147546035886 
0 
-0.0003418147546035886 
-0.0007019239071182174 
0.001459561192041171 
0.001034538928273634 
0 
-0.001034538928273634 
-0.001459561192041171 
0.001051196022203283 
-0.001031737220913389 
0 
0.001031737220913389 
-0.001051196022203283 
0.0009693486503553606 
0.0002177207894910016 
0 
-0.0002177207894910016 
-0.0009693486503553606 
-0.0001147312973797266 
-0.0001497464675902961 
0 
0.0001497464675902961 
0.0001147312973797266 
-0.0009332087004293146 
-0.0006224719197952654 
0 
0.0006224719197952654 
0.0009332087004293146 
-0.0006676398318253458 
-0.001044663543953665 
0 
0.001044663543953665 
0.0006676398318253458 
9.834719516793317e-06 
-0.0002724321575048404 
0 
0.0002724321575048404 
-9.834719516793317e-06 
0.0005344929401360077 
1.194873725150224e-05 
0 
-1.194873725150224e-05 
-0.0005344929401360077 
0.000785615781118188 
0.0001786312182201778 
0 
-0.0001786312182201778 
-0.000785615781118188 
-0.0004912900649203018 
-0.0007327431847804031 
0 
0.0007327431847804031 
0.0004912900649203018 
-0.0007820473356656781 
4.661173790095122e-05 
0 
-4.661173790095122e-05 
0.0007820473356656781 
-0.0005333156746519221 
-0.0001332558475910702 
0 
0.0001332558475910702 
0.0005333156746519221 
-8.77770529004966e-05 
-0.0005988718609869083 
0 
0.0005988718609869083 
8.77770529004966e-05 
0.001007291491849969 
-0.0005017184159676209 
0 
0.0005017184159676209 
-0.001007291491849969 
0.0003117374733910557 
-0.0006792780333726558 
0 
0.0006792780333726558 
-0.0003117374733910557 
-0.001593088850547539 
-0.0008858045502221938 
0 
0.0008858045502221938 
0.001593088850547539 
0.0004069227944373129 
-0.0001913442385546798 
0 
0.0001913442385546798 
-0.0004069227944373129 
0.001035144709314725 
-0.0009483801197995317 
0 
0.0009483801197995317 
-0.001035144709314725 
0.001697329301034832 
0.0009962248284101759 
0 
-0.0009962248284101759 
-0.001697329301034832 
0.002771231347225148 
0.0007536173817354662 
0 
-0.0007536173817354662 
-0.002771231347225148 
0.002856588310353478 
0.001413366246070877 
0 
-0.001413366246070877 
-0.002856588310353478 
0.002974161092682728 
0.001089846458314405 
0 
-0.001089846458314405 
-0.002974161092682728 
0.003448515401038114 
0.001320346562810993 
0 
-0.001320346562810993 
-0.003448515401038114 
0.003891750039972435 
0.001622814314212117 
0 
-0.001622814314212117 
-0.003891750039972435 
0.002679374024177089 
0.0005268527598067577 
0 
-0.0005268527598067577 
-0.002679374024177089 
0.002304633943144195 
0.001591553519095588 
0 
-0.001591553519095588 
-0.002304633943144195 
0.001820707009149464 
0.0007775206340698994 
0 
-0.0007775206340698994 
-0.001820707009149464 
0.004098496003510334 
0.001447124882029951 
0 
-0.001447124882029951 
-0.004098496003510334 
0.00516241466622242 
0.001749478916480503 
0 
-0.001749478916480503 
-0.00516241466622242 
0.003425105203928244 
0.0005882866137067863 
0 
-0.0005882866137067863 
-0.003425105203928244 
0.003465414815807229 
0.001415725580565319 
0 
-0.001415725580565319 
-0.003465414815807229 
0.002759638964173864 
0.0006702906295524234 
0 
-0.0006702906295524234 
-0.002759638964173864 
0.001074634269840769 
0.0001936388363001545 
0 
-0.0001936388363001545 
-0.001074634269840769 
0.0002141168235230939 
-0.0009052755778781776 
0 
0.0009052755778781776 
-0.0002141168235230939 
0.001302560424106095 
0.0008516234201306007 
0 
-0.0008516234201306007 
-0.001302560424106095 
0.0009702480757441301 
-0.0001047286093981286 
0 
0.0001047286093981286 
-0.0009702480757441301 
0.0005978292618934219 
-0.0001154614853901911 
0 
0.0001154614853901911 
-0.0005978292618934219 
0.0008783371297847177 
9.509551659343762e-05 
0 
-9.509551659343762e-05 
-0.0008783371297847177 
0.003084822608248032 
0.0009284198251889816 
0 
-0.0009284198251889816 
-0.003084822608248032 
0.001677554273772244 
0.0001295189078736197 
0 
-0.0001295189078736197 
-0.001677554273772244 
0.002880180767256276 
0.0005123345318387131 
0 
-0.0005123345318387131 
-0.002880180767256276 
4.378565328380402e-05 
0.0001280736844731615 
0 
-0.0001280736844731615 
-4.378565328380402e-05 
0.002280307198316693 
0.0007762587078209392 
0 
-0.0007762587078209392 
-0.002280307198316693 
0.001436279110088548 
0.0008632261393301288 
0 
-0.0008632261393301288 
-0.001436279110088548 
0.002152236086837251 
0.0009513510368144974 
0 
-0.0009513510368144974 
-0.002152236086837251 
0.003461090932348588 
0.001202758034448874 
0 
-0.001202758034448874 
-0.003461090932348588 
0.002550789373880289 
0.000690728468647695 
0 
-0.000690728468647695 
-0.002550789373880289 
0.001827429252253524 
0.0006974487325223703 
0 
-0.0006974487325223703 
-0.001827429252253524 
0.001177839540125775 
0.0007143517297696224 
0 
-0.0007143517297696224 
-0.001177839540125775 
0.001308788128347608 
-0.0002326167802365645 
0 
0.0002326167802365645 
-0.001308788128347608 
-0.001320881372999176 
-0.0004027771036146686 
0 
0.0004027771036146686 
0.001320881372999176 
0.001189304217538896 
0.0005729010307035088 
0 
-0.0005729010307035088 
-0.001189304217538896 
0.0007719712706147026 
0.0005145337416412561 
0 
-0.0005145337416412561 
-0.0007719712706147026 
0.0009932539298337598 
1.220690585038197e-05 
0 
-1.220690585038197e-05 
-0.0009932539298337598 
-0.0006634275762772143 
-0.0004731676223755415 
0 
0.0004731676223755415 
0.0006634275762772143 
0.0004721551034398684 
-5.082744699555256e-05 
0 
5.082744699555256e-05 
-0.0004721551034398684 
0.000186226619430739 
0.0003247627475805531 
0 
-0.0003247627475805531 
-0.000186226619430739 
0.0001987841151079682 
0.0001337585096559565 
0 
-0.0001337585096559565 
-0.0001987841151079682 
-0.0008074625145105356 
3.411648117071744e-05 
0 
-3.411648117071744e-05 
0.0008074625145105356 
-0.0008929754258943832 
-0.0005681493089815436 
0 
0.0005681493089815436 
0.0008929754258943832 
-0.0004304756916561104 
-0.000526088324421165 
0 
0.000526088324421165 
0.0004304756916561104 
0.002276392592569646 
0.0002806285192605035 
0 
-0.0002806285192605035 
-0.002276392592569646 
0.002898535502038016 
0.0007613089723515083 
0 
-0.0007613089723515083 
-0.002898535502038016 
0.002112805984703884 
0.0002867150002076365 
0 
-0.0002867150002076365 
-0.002112805984703884 
0.001281188647668144 
0.000395656202038159 
0 
-0.000395656202038159 
-0.001281188647668144 
0.00121966919931881 
-9.597610282517199e-05 
0 
9.597610282517199e-05 
-0.00121966919931881 
0.001215135701665557 
0.0006983608488096464 
0 
-0.0006983608488096464 
-0.001215135701665557 
0.002074732958756814 
0.001061417559602654 
0 
-0.001061417559602654 
-0.002074732958756814 
0.002667826690838792 
0.0009349316626886691 
0 
-0.0009349316626886691 
-0.002667826690838792 
0.002450322903754769 
0.00036272724087805 
0 
-0.00036272724087805 
-0.002450322903754769 
0.00156938178711545 
0.0004300011134263943 
0 
-0.0004300011134263943 
-0.00156938178711545 
0.00103699063469982 
0.0005012340736624705 
0 
-0.0005012340736624705 
-0.00103699063469982 
0.0008790440139518082 
0.0003738604138943835 
0 
-0.0003738604138943835 
-0.0008790440139518082 
0.001979992931771679 
0.001644172231593902 
0 
-0.001644172231593902 
-0.001979992931771679 
0.001052295096409013 
0.0004157296524786422 
0 
-0.0004157296524786422 
-0.001052295096409013 
0.001920101008486606 
0.0008622991939202115 
0 
-0.0008622991939202115 
-0.001920101008486606 
0.0004699400794139145 
0.000204402696559185 
0 
-0.000204402696559185 
-0.0004699400794139145 
0.001409874434137811 
2.389350626945916e-05 
0 
-2.389350626945916e-05 
-0.001409874434137811 
0.001570928443013301 
0.0002848939272799505 
0 
-0.0002848939272799505 
-0.001570928443013301 
0.001727641335607969 
-0.0001880692429164602 
0 
0.0001880692429164602 
-0.001727641335607969 
-0.001339059625219651 
-0.0006642582657620326 
0 
0.0006642582657620326 
0.001339059625219651 
-0.0005151287296847881 
-0.001359434494915078 
0 
0.001359434494915078 
0.0005151287296847881 
0.0005267642084354507 
0.0001291119162514701 
0 
-0.0001291119162514701 
-0.0005267642084354507 
0.0006372144275487629 
-0.0002758931184707216 
0 
0.0002758931184707216 
-0.0006372144275487629 
0.00139341227628024 
0.0002215901710083178 
0 
-0.0002215901710083178 
-0.00139341227628024 
0.0003575025262544347 
-0.0005557253982490496 
0 
0.0005557253982490496 
-0.0003575025262544347 
0.001544387045320813 
-4.458611032731395e-05 
0 
4.458611032731395e-05 
-0.001544387045320813 
0.001473379817584532 
-0.0001201380434773573 
0 
0.0001201380434773573 
-0.001473379817584532 
-0.0001127572327548179 
-0.00014832524321725 
0 
0.00014832524321725 
0.0001127572327548179 
0.001289876422065602 
0.0003336119424244717 
0 
-0.0003336119424244717 
-0.001289876422065602 
-0.001786205510473058 
-0.001058529943912444 
0 
0.001058529943912444 
0.001786205510473058 
-0.001342885273268014 
-0.0008121791838090545 
0 
0.0008121791838090545 
0.001342885273268014 
-0.001047824692021436 
-0.0005293839964829891 
0 
0.0005293839964829891 
0.001047824692021436 
-7.312250438829992e-05 
8.034747272629391e-05 
0 
-8.034747272629391e-05 
7.312250438829992e-05 
-0.001219029491823476 
-0.001004315100833211 
0 
0.001004315100833211 
0.001219029491823476 
-0.001473123310324486 
-0.0008814420340808055 
0 
0.0008814420340808055 
0.001473123310324486 
0.0008971695355598217 
0.0001684011607659101 
0 
-0.0001684011607659101 
-0.0008971695355598217 
-0.00170460179610966 
-0.00169979917710083 
0 
0.00169979917710083 
0.00170460179610966 
0.003080286556899249 
0.001690844092000151 
0 
-0.001690844092000151 
-0.003080286556899249 
0.0005566851825821224 
-0.0001457486506985092 
0 
0.0001457486506985092 
-0.0005566851825821224 
0.0006222643520280778 
0.0002667598325291158 
0 
-0.0002667598325291158 
-0.0006222643520280778 
0.0006031811607164071 
-0.0001305492099356612 
0 
0.0001305492099356612 
-0.0006031811607164071 
0.0009142204152180707 
9.548744742068082e-05 
0 
-9.548744742068082e-05 
-0.0009142204152180707 
0.001123085483959581 
0.0006037130992253961 
0 
-0.0006037130992253961 
-0.001123085483959581 
0.001622951308493458 
0.000386146706505747 
0 
-0.000386146706505747 
-0.001622951308493458 
0.001135823586993719 
0.0008931454507869106 
0 
-0.0008931454507869106 
-0.001135823586993719 
2.527147468339816e-05 
0.0004557532301924704 
0 
-0.0004557532301924704 
-2.527147468339816e-05 
0.002126344300640617 
0.0008531199978765327 
0 
-0.0008531199978765327 
-0.002126344300640617 
0.0006428046290568207 
0.0002956819141850564 
0 
-0.0002956819141850564 
-0.0006428046290568207 
0.0006313904446695613 
6.470486461128268e-05 
0 
-6.470486461128268e-05 
-0.0006313904446695613 
0.003105999723146968 
0.0007813171078321226 
0 
-0.0007813171078321226 
-0.003105999723146968 
0.002525489240036463 
0.001386234794110748 
0 
-0.001386234794110748 
-0.002525489240036463 
0.0003675613732163265 
0.0007888148136799537 
0 
-0.0007888148136799537 
-0.0003675613732163265 
0.0005763436442302568 
-0.001196964393155783 
0 
0.001196964393155783 
-0.0005763436442302568 
0.002721803945752291 
0.001061143458504789 
0 
-0.001061143458504789 
-0.002721803945752291 
-0.000395063118613797 
-0.0007608380445502176 
0 
0.0007608380445502176 
0.000395063118613797 
-0.0003054082598854877 
-0.0007359739410138157 
0 
0.0007359739410138157 
0.0003054082598854877 
-0.0005474616228710189 
-0.0001561824279047212 
0 
0.0001561824279047212 
0.0005474616228710189 
0.001194000556816486 
-9.554247745139719e-05 
0 
9.554247745139719e-05 
-0.001194000556816486 
6.524886418544334e-05 
0.0004438765118450666 
0 
-0.0004438765118450666 
-6.524886418544334e-05 
0.000244451291549157 
0.0002882196511792085 
0 
-0.0002882196511792085 
-0.000244451291549157 
0.0005211532914622362 
0.0008279230118632657 
0 
-0.0008279230118632657 
-0.0005211532914622362 
-0.001398184289116432 
-0.0003661547526863111 
0 
0.0003661547526863111 
0.001398184289116432 
-0.001601885340046923 
-0.001027448580652795 
0 
0.001027448580652795 
0.001601885340046923 
-0.0009568417753005031 
-0.0003373328482635416 
0 
0.0003373328482635416 
0.0009568417753005031 
-0.0007223345415523908 
-0.0004356442786317087 
0 
0.0004356442786317087 
0.0007223345415523908 
0.0001635494822698126 
-0.0003711047933074175 
0 
0.0003711047933074175 
-0.0001635494822698126 
-0.0001211035176979553 
-0.0006020897375057669 
0 
0.0006020897375057669 
0.0001211035176979553 
0.0003874092270170285 
-0.0004570444361981984 
0 
0.0004570444361981984 
-0.0003874092270170285 
-0.0004034593651698619 
-0.001949250026172754 
0 
0.001949250026172754 
0.0004034593651698619 
0.0002200557217809706 
2.139789223695089e-05 
0 
-2.139789223695089e-05 
-0.0002200557217809706 
0.002039603879892485 
0.00048302238346743 
0 
-0.00048302238346743 
-0.002039603879892485 
0.002398522167883868 
0.0008394968372217417 
0 
-0.0008394968372217417 
-0.002398522167883868 
0.00238639419425521 
0.0003281129125170671 
0 
-0.0003281129125170671 
-0.00238639419425521 
0.003281946292352188 
0.001429150460105035 
0 
-0.001429150460105035 
-0.003281946292352188 
0.004562374357049454 
0.001334240677865807 
0 
-0.001334240677865807 
-0.004562374357049454 
0.00283221051493865 
0.00122324591922373 
0 
-0.00122324591922373 
-0.00283221051493865 
0.001809763443838957 
0.001443991468308447 
0 
-0.001443991468308447 
-0.001809763443838957 
0.001313251452390105 
0.0007409984481369058 
0 
-0.0007409984481369058 
-0.001313251452390105 
0.00231959206960516 
0.001267024668188724 
0 
-0.001267024668188724 
-0.00231959206960516 
0.002169157850108343 
0.00145693281477971 
0 
-0.00145693281477971 
-0.002169157850108343 
0.002825068942431033 
0.001281800404961313 
0 
-0.001281800404961313 
-0.002825068942431033 
0.001706555735727208 
0.001010804012688802 
0 
-0.001010804012688802 
-0.001706555735727208 
0.00326161718549611 
0.001381006138506843 
0 
-0.001381006138506843 
-0.00326161718549611 
0.001454958994734798 
0.0005785173646451758 
0 
-0.0005785173646451758 
-0.001454958994734798 
0.001832486335460672 
0.000581924001031331 
0 
-0.000581924001031331 
-0.001832486335460672 
0.000343603167454467 
0.000413340066150867 
0 
-0.000413340066150867 
-0.000343603167454467 
0.001067060732228678 
0.0001597090049267191 
0 
-0.0001597090049267191 
-0.001067060732228678 
0.001728266435680319 
0.0002751254662191255 
0 
-0.0002751254662191255 
-0.001728266435680319 
0.003325721674064166 
0.0002928136810600017 
0 
-0.0002928136810600017 
-0.003325721674064166 
0.002906562649628665 
0.0007679578055924701 
0 
-0.0007679578055924701 
-0.002906562649628665 
0.001236922106423285 
0.0003805456357948701 
0 
-0.0003805456357948701 
-0.001236922106423285 
0.00138168446820204 
0.0002496665525727544 
0 
-0.0002496665525727544 
-0.00138168446820204 
0.0007211553754351569 
0.0004068500247993563 
0 
-0.0004068500247993563 
-0.0007211553754351569 
0.0009442307102433161 
0.0001533224786611454 
0 
-0.0001533224786611454 
-0.0009442307102433161 
0.002064615716053337 
0.0009246531204125319 
0 
-0.0009246531204125319 
-0.002064615716053337 
0.002039011718443819 
0.001179018217385196 
0 
-0.001179018217385196 
-0.002039011718443819 
0.002667719598476256 
0.0007745101380000748 
0 
-0.0007745101380000748 
-0.002667719598476256 
0.0002749966065860146 
-0.0001183431076220456 
0 
0.0001183431076220456 
-0.0002749966065860146 
0.002723485502746274 
0.001641255410941534 
0 
-0.001641255410941534 
-0.002723485502746274 
-0.0003140264519636443 
8.505147749077469e-05 
0 
-8.505147749077469e-05 
0.0003140264519636443 
0.0001680192272361463 
-0.001182850514337313 
0 
0.001182850514337313 
-0.0001680192272361463 
-0.0008050131451920715 
-0.0002369261587808552 
0 
0.0002369261587808552 
0.0008050131451920715 
0.00146534848872253 
-3.106926985899504e-05 
0 
3.106926985899504e-05 
-0.00146534848872253 
0.001191503697800685 
0.0001657358825524468 
0 
-0.0001657358825524468 
-0.001191503697800685 
0.003402587071199136 
0.00132895093739846 
0 
-0.00132895093739846 
-0.003402587071199136 
0.001195288015469374 
0.0004562730266446807 
0 
-0.0004562730266446807 
-0.001195288015469374 
0.00121854647472923 
0.0008537046816428166 
0 
-0.0008537046816428166 
-0.00121854647472923 
0.001354784008860404 
0.0003289348196143837 
0 
-0.0003289348196143837 
-0.001354784008860404 
-0.001006823006758741 
-9.038831785910335e-06 
0 
9.038831785910335e-06 
0.001006823006758741 
0.001605806719136545 
0.0003019748118307676 
0 
-0.0003019748118307676 
-0.001605806719136545 
0.0003621988960894766 
-0.0006227148199514314 
0 
0.0006227148199514314 
-0.0003621988960894766 
0.002399105675711539 
0.0004066833650189582 
0 
-0.0004066833650189582 
-0.002399105675711539 
0.0007570073407348926 
4.267369525507102e-05 
0 
-4.267369525507102e-05 
-0.0007570073407348926 
-0.0001519204368192032 
-0.0003978295614126813 
0 
0.0003978295614126813 
0.0001519204368192032 
0.0003509122661086414 
-0.000273219283049728 
0 
0.000273219283049728 
-0.0003509122661086414 
0.001869284974496544 
0.001080265804105461 
0 
-0.001080265804105461 
-0.001869284974496544 
7.99035272971598e-06 
-0.0009626785156169268 
0 
0.0009626785156169268 
-7.99035272971598e-06 
0.0009551462165517208 
0.0001364108820253841 
0 
-0.0001364108820253841 
-0.0009551462165517208 
0.002118609787656795 
0.0009165584491826062 
0 
-0.0009165584491826062 
-0.002118609787656795 
0.002180159723053552 
0.0009987820804254165 
0 
-0.0009987820804254165 
-0.002180159723053552 
0.0009730940640369989 
-0.0002741656387643797 
0 
0.0002741656387643797 
-0.0009730940640369989 
0.002324080743558689 
0.001280718274543237 
0 
-0.001280718274543237 
-0.002324080743558689 
0.001716506126219335 
0.0007483731744813883 
0 
-0.0007483731744813883 
-0.001716506126219335 
0.001277833242659246 
0.0005752821909866185 
0 
-0.0005752821909866185 
-0.001277833242659246 
0.002028923051289802 
0.001559096310281784 
0 
-0.001559096310281784 
-0.002028923051289802 
0.0005817624084540713 
-0.0004427747907958616 
0 
0.0004427747907958616 
-0.0005817624084540713 
0.001585788911319671 
6.582985346496977e-05 
0 
-6.582985346496977e-05 
-0.001585788911319671 
0.002135029280533411 
0.0004908420370838624 
0 
-0.0004908420370838624 
-0.002135029280533411 
0.0002766947820274591 
6.988426075567086e-06 
0 
-6.988426075567086e-06 
-0.0002766947820274591 
-0.0004718978686232183 
0.0001120585372355463 
0 
-0.0001120585372355463 
0.0004718978686232183 
0.002043782136090196 
0.0006115161324016625 
0 
-0.0006115161324016625 
-0.002043782136090196 
-5.645466595661964e-05 
6.933637754667997e-05 
0 
-6.933637754667997e-05 
5.645466595661964e-05 
-0.002482908581038229 
-0.002570092852752435 
0 
0.002570092852752435 
0.002482908581038229 
0.0007952024775054545 
-5.436999898561582e-05 
0 
5.436999898561582e-05 
-0.0007952024775054545 
-0.0004602573852272032 
-0.0002221820179558412 
0 
0.0002221820179558412 
0.0004602573852272032 
0.002220168259268368 
0.0002130304371127143 
0 
-0.0002130304371127143 
-0.002220168259268368 
-0.0009018964757058327 
-0.001696486671341201 
0 
0.001696486671341201 
0.0009018964757058327 
-9.166754823555881e-05 
-0.0005696329555769295 
0 
0.0005696329555769295 
9.166754823555881e-05 
-0.0008073772966357836 
-0.001160984608891162 
0 
0.001160984608891162 
0.0008073772966357836 
-0.0004803417278213101 
-0.001203737872360728 
0 
0.001203737872360728 
0.0004803417278213101 
9.823637376449493e-05 
-0.0002302017608316758 
0 
0.0002302017608316758 
-9.823637376449493e-05 
0.0002501360556864459 
0.0001074146261953287 
0 
-0.0001074146261953287 
-0.0002501360556864459 
0.0009538090656698344 
0.0005345848206463177 
0 
-0.0005345848206463177 
-0.0009538090656698344 
-0.0003890070529686554 
-2.791500476617163e-05 
0 
2.791500476617163e-05 
0.0003890070529686554 
0.000925044567391705 
0.0001567755058400496 
0 
-0.0001567755058400496 
-0.000925044567391705 
5.941921008150281e-05 
-0.0001029176288671114 
0 
0.0001029176288671114 
-5.941921008150281e-05 
0.0002882863782555486 
-0.0001733913338366733 
0 
0.0001733913338366733 
-0.0002882863782555486 
0.001872348465278604 
0.0006271350884510922 
0 
-0.0006271350884510922 
-0.001872348465278604 
-0.001144396854927912 
-0.001774105726751569 
0 
0.001774105726751569 
0.001144396854927912 
0.001220847464153605 
0.001008156645222525 
0 
-0.001008156645222525 
-0.001220847464153605 
3.250397509083704e-05 
0.0001174528584159924 
0 
-0.0001174528584159924 
-3.250397509083704e-05 
0.0003088407964225881 
-0.0001520404076041645 
0 
0.0001520404076041645 
-0.0003088407964225881 
-0.0008286147096611386 
-0.0009421906781217389 
0 
0.0009421906781217389 
0.0008286147096611386 
0.0004140326174789363 
-0.0001306701191809236 
0 
0.0001306701191809236 
-0.0004140326174789363 
0.0007231990124004441 
0.0003308446967883818 
0 
-0.0003308446967883818 
-0.0007231990124004441 
0.0006684054660816258 
5.112048043548472e-05 
0 
-5.112048043548472e-05 
-0.0006684054660816258 
-0.0005405627355107544 
5.85524353817941e-05 
0 
-5.85524353817941e-05 
0.0005405627355107544 
0.0004194048177108308 
0.0003060994015353616 
0 
-0.0003060994015353616 
-0.0004194048177108308 
0.0001904907828032026 
6.062686318577869e-05 
0 
-6.062686318577869e-05 
-0.0001904907828032026 
7.637234677967136e-05 
0.0001617163612794965 
0 
-0.0001617163612794965 
-7.637234677967136e-05 
7.645899769323553e-05 
-0.0001636331753179726 
0 
0.0001636331753179726 
-7.645899769323553e-05 
-0.0002285149978801976 
-0.0001029935678527045 
0 
0.0001029935678527045 
0.0002285149978801976 
0.0008426236723001183 
7.766311765819564e-06 
0 
-7.766311765819564e-06 
-0.0008426236723001183 
-0.000358079632882604 
-0.000307830594161958 
0 
0.000307830594161958 
0.000358079632882604 
-0.0006641210639565296 
-0.001942219900831944 
0 
0.001942219900831944 
0.0006641210639565296 
0.002181274406162828 
0.001164899070803227 
0 
-0.001164899070803227 
-0.002181274406162828 
-3.278867498401719e-05 
-0.0008872275340835804 
0 
0.0008872275340835804 
3.278867498401719e-05 
0.0006929810977349197 
-4.68585326045898e-07 
0 
4.68585326045898e-07 
-0.0006929810977349197 
0.002544655711055385 
0.0009944270793134436 
0 
-0.0009944270793134436 
-0.002544655711055385 
0.0003802063061128098 
-0.000386483557523476 
0 
0.000386483557523476 
-0.0003802063061128098 
-0.0006482117989365727 
-0.0002095877509518393 
0 
0.0002095877509518393 
0.0006482117989365727 
-0.001273888030846728 
-0.0005352432594394254 
0 
0.0005352432594394254 
0.001273888030846728 
0.0006691520241807132 
0.0003546950355316498 
0 
-0.0003546950355316498 
-0.0006691520241807132 
-0.0001523153394263787 
-0.0004029986433643713 
0 
0.0004029986433643713 
0.0001523153394263787 
-0.0001104825677388062 
-0.0004342674635491884 
0 
0.0004342674635491884 
0.0001104825677388062 
-0.0007490055027137616 
-0.0002462385428534666 
0 
0.0002462385428534666 
0.0007490055027137616 
0.001928485975534601 
0.0003254500467424184 
0 
-0.0003254500467424184 
-0.001928485975534601 
0.0005051682692601709 
-5.084187835156057e-05 
0 
5.084187835156057e-05 
-0.0005051682692601709 
0.0008320350245376406 
0.0002224164609321187 
0 
-0.0002224164609321187 
-0.0008320350245376406 
-0.0003908948166596291 
-0.0004421750533725859 
0 
0.0004421750533725859 
0.0003908948166596291 
0.0001489824190772512 
-0.001400197929687078 
0 
0.001400197929687078 
-0.0001489824190772512 
0.000810538959459781 
9.420782688793151e-05 
0 
-9.420782688793151e-05 
-0.000810538959459781 
0.002636641168956314 
0.0007198603311740594 
0 
-0.0007198603311740594 
-0.002636641168956314 
0.002865095189555203 
0.0009612989668695851 
0 
-0.0009612989668695851 
-0.002865095189555203 
0.0008980970112559583 
-7.001854179251632e-05 
0 
7.001854179251632e-05 
-0.0008980970112559583 
0.0004353078806742261 
-0.0001948365244458738 
0 
0.0001948365244458738 
-0.0004353078806742261 
0.0004389662312483264 
-0.0001952990975426556 
0 
0.0001952990975426556 
-0.0004389662312483264 
2.875769571060635e-05 
-0.0002107763929310785 
0 
0.0002107763929310785 
-2.875769571060635e-05 
0.0006108079016772783 
0.001302022752206541 
0 
-0.001302022752206541 
-0.0006108079016772783 
0.001006120450559383 
0.0004277825886109737 
0 
-0.0004277825886109737 
-0.001006120450559383 
0.002060554686417205 
0.0008477026914739509 
0 
-0.0008477026914739509 
-0.002060554686417205 
0.002397560981911166 
0.001192909932571849 
0 
-0.001192909932571849 
-0.002397560981911166 
0.001739513845219667 
0.0009713455879025414 
0 
-0.0009713455879025414 
-0.001739513845219667 
0.002862847072860351 
0.001062236486761456 
0 
-0.001062236486761456 
-0.002862847072860351 
0.001565594159274836 
-0.0001337933419585762 
0 
0.0001337933419585762 
-0.001565594159274836 
0.0005321187040900816 
-8.227420823568701e-05 
0 
8.227420823568701e-05 
-0.0005321187040900816 
0.001807743311702558 
-0.0004767834923121718 
0 
0.0004767834923121718 
-0.001807743311702558 
2.024386181239932e-06 
7.872168354425512e-06 
0 
-7.872168354425512e-06 
-2.024386181239932e-06 
0.0009687406515060667 
-0.000149673813332564 
0 
0.000149673813332564 
-0.0009687406515060667 
0.00137700398817617 
0.0005068462959776255 
0 
-0.0005068462959776255 
-0.00137700398817617 
0.0009406221273868658 
-0.0002313892179708108 
0 
0.0002313892179708108 
-0.0009406221273868658 
0.0006437651555422577 
-0.0001271106024633828 
0 
0.0001271106024633828 
-0.0006437651555422577 
4.730430259574691e-05 
-3.155918750986966e-05 
0 
3.155918750986966e-05 
-4.730430259574691e-05 
-0.001167607637852139 
-0.0007289374535133425 
0 
0.0007289374535133425 
0.001167607637852139 
-0.004224681760683106 
-0.00177021848285657 
0 
0.00177021848285657 
0.004224681760683106 
-1.21337985743076e-05 
-2.757722984970902e-05 
0 
2.757722984970902e-05 
1.21337985743076e-05 
-2.54552476941739e-05 
-0.0005959646569866444 
0 
0.0005959646569866444 
2.54552476941739e-05 
0.002134049571860489 
0.0007914885363015493 
0 
-0.0007914885363015493 
-0.002134049571860489 
0.00129193384508832 
-0.0005128535133062992 
0 
0.0005128535133062992 
-0.00129193384508832 
0.0008477158427192675 
-0.0001261305470878422 
0 
0.0001261305470878422 
-0.0008477158427192675 
-0.001113612688908359 
-0.0008908806644284842 
0 
0.0008908806644284842 
0.001113612688908359 
7.444257425147301e-05 
0.0002813963094946964 
0 
-0.0002813963094946964 
-7.444257425147301e-05 
0.001355201658072895 
-2.719402986426683e-05 
0 
2.719402986426683e-05 
-0.001355201658072895 
0.0001508480729309719 
0.0001839735691605587 
0 
-0.0001839735691605587 
-0.0001508480729309719 
0.001477850972279215 
-0.0001473109613376007 
0 
0.0001473109613376007 
-0.001477850972279215 
0.0005715845780609174 
-0.000497874490416228 
0 
0.000497874490416228 
-0.0005715845780609174 
0.000965259317945143 
-0.000104682590242755 
0 
0.000104682590242755 
-0.000965259317945143 
-0.0005558139971413074 
-0.0005510914734903636 
0 
0.0005510914734903636 
0.0005558139971413074 
-0.0001876429231126552 
-0.0006883397716201952 
0 
0.0006883397716201952 
0.0001876429231126552 
0.0006490119076466604 
-0.0002527517639222384 
0 
0.0002527517639222384 
-0.0006490119076466604 
-0.001071596729491201 
-0.0002098351211418176 
0 
0.0002098351211418176 
0.001071596729491201 
-0.0007093357430913043 
-0.0002060265405393201 
0 
0.0002060265405393201 
0.0007093357430913043 
-5.130102946898672e-05 
-0.0002349675127139136 
0 
0.0002349675127139136 
5.130102946898672e-05 
0.0001249431242755416 
-0.000745195765660979 
0 
0.000745195765660979 
-0.0001249431242755416 
-0.0001139104362420114 
-0.0004722149566983096 
0 
0.0004722149566983096 
0.0001139104362420114 
-0.001207370770609088 
-0.000856445032961971 
0 
0.000856445032961971 
0.001207370770609088 
-0.0009439876213053196 
-0.0006813722334780308 
0 
0.0006813722334780308 
0.0009439876213053196 
-0.0001038290941776795 
0.00103587454388887 
0 
-0.00103587454388887 
0.0001038290941776795 
-0.001471645939479797 
-0.002362656350654291 
0 
0.002362656350654291 
0.001471645939479797 
-0.0002822148094378269 
-0.0005881097075032065 
0 
0.0005881097075032065 
0.0002822148094378269 
0.0004533479649048579 
0.0002034686825856653 
0 
-0.0002034686825856653 
-0.0004533479649048579 
-0.0001731964070048258 
0.0001857102938027047 
0 
-0.0001857102938027047 
0.0001731964070048258 
0.000989375859414185 
0.0008467924490601994 
0 
-0.0008467924490601994 
-0.000989375859414185 
-0.0001951412224934584 
-0.0001551962969674073 
0 
0.0001551962969674073 
0.0001951412224934584 
-1.33455897960481e-05 
1.776264312975963e-05 
0 
-1.776264312975963e-05 
1.33455897960481e-05 
-4.450361744427027e-06 
-5.712833965263113e-05 
0 
5.712833965263113e-05 
4.450361744427027e-06 
0.001134441991483189 
0.00120874623457456 
0 
-0.00120874623457456 
-0.001134441991483189 
-0.0006621347910108739 
0.0003579125299400237 
0 
-0.0003579125299400237 
0.0006621347910108739 
-0.001073725272223288 
-0.0005458367164427173 
0 
0.0005458367164427173 
0.001073725272223288 
0.0002684974200934152 
-0.0005973153775441565 
0 
0.0005973153775441565 
-0.0002684974200934152 
0.0005123352334454108 
-0.0003405763668670757 
0 
0.0003405763668670757 
-0.0005123352334454108 
-0.0004693522401624593 
-0.0005695181778472358 
0 
0.0005695181778472358 
0.0004693522401624593 
0.000977987356275731 
-0.0003149917653072033 
0 
0.0003149917653072033 
-0.000977987356275731 
-0.000998694776545669 
-0.0003557267145556058 
0 
0.0003557267145556058 
0.000998694776545669 
-0.0007724736703991806 
-0.001660247779279336 
0 
0.001660247779279336 
0.0007724736703991806 
0.000195900444867434 
0.0002099778302815862 
0 
-0.0002099778302815862 
-0.000195900444867434 
0.002611319087503761 
0.001002435175127562 
0 
-0.001002435175127562 
-0.002611319087503761 
0.003008800000585846 
0.001016480700418809 
0 
-0.001016480700418809 
-0.003008800000585846 
0.002141347517384357 
0.0006713733264464751 
0 
-0.0006713733264464751 
-0.002141347517384357 
0.002568810990120264 
0.001579781793843512 
0 
-0.001579781793843512 
-0.002568810990120264 
0.002285002810636872 
0.001155234801018156 
0 
-0.001155234801018156 
-0.002285002810636872 
0.001695821696289626 
0.0002901456518547768 
0 
-0.0002901456518547768 
-0.001695821696289626 
0.001126180091010209 
0.0005854098023505122 
0 
-0.0005854098023505122 
-0.001126180091010209 
0.001201733458501394 
0.000502491950609069 
0 
-0.000502491950609069 
-0.001201733458501394 
0.001394410351200197 
0.0004110441577978475 
0 
-0.0004110441577978475 
-0.001394410351200197 
0.0003112005655612277 
-0.0001943240721390627 
0 
0.0001943240721390627 
-0.0003112005655612277 
0.001614559999873928 
0.001300461702622124 
0 
-0.001300461702622124 
-0.001614559999873928 
0.0003766458718104065 
0.0001470017450802258 
0 
-0.0001470017450802258 
-0.0003766458718104065 
0.000927520801440108 
0.0003541753804195882 
0 
-0.0003541753804195882 
-0.000927520801440108 
-5.017933995272769e-05 
0.0002212948099153705 
0 
-0.0002212948099153705 
5.017933995272769e-05 
-2.157484369078366e-06 
-0.00049009193553484 
0 
0.00049009193553484 
2.157484369078366e-06 
-0.0007698473961578176 
-0.0001601377045644563 
0 
0.0001601377045644563 
0.0007698473961578176 
0.002574912777245213 
0.0004114089066860275 
0 
-0.0004114089066860275 
-0.002574912777245213 
0.001806507606982847 
0.0003161294649585063 
0 
-0.0003161294649585063 
-0.001806507606982847 
0.002906475066850521 
0.0007371780498473592 
0 
-0.0007371780498473592 
-0.002906475066850521 
0.001884374496927771 
0.0008473376364819723 
0 
-0.0008473376364819723 
-0.001884374496927771 
0.001409021216809832 
0.0004242977056064303 
0 
-0.0004242977056064303 
-0.001409021216809832 
0.0003018766244293333 
-0.0002652604248244046 
0 
0.0002652604248244046 
-0.0003018766244293333 
0.0002746142163636326 
8.759354539212785e-05 
0 
-8.759354539212785e-05 
-0.0002746142163636326 
3.292794066270675e-05 
-0.0003702620388535143 
0 
0.0003702620388535143 
-3.292794066270675e-05 
0.0009173307211340789 
-6.508724140327397e-05 
0 
6.508724140327397e-05 
-0.0009173307211340789 
-0.000484082312390936 
-0.0008811562994156518 
0 
0.0008811562994156518 
0.000484082312390936 
0.000570671727006561 
0.0008493095040777181 
0 
-0.0008493095040777181 
-0.000570671727006561 
0.0003954549804714571 
0.0002375415956083715 
0 
-0.0002375415956083715 
-0.0003954549804714571 
0.0007664455620004143 
-1.278249324080871e-05 
0 
1.278249324080871e-05 
-0.0007664455620004143 
-0.0009945357396883971 
-0.0005900229320636476 
0 
0.0005900229320636476 
0.0009945357396883971 
9.879752429804231e-06 
-0.001187091686547105 
0 
0.001187091686547105 
-9.879752429804231e-06 
1.703839503439733e-05 
-9.686728524715571e-05 
0 
9.686728524715571e-05 
-1.703839503439733e-05 
0.001862489547705509 
0.0002435692954425198 
0 
-0.0002435692954425198 
-0.001862489547705509 
0.001289868011124399 
0.0005105158960149829 
0 
-0.0005105158960149829 
-0.001289868011124399 
0.002969918259422706 
0.0009447945863532721 
0 
-0.0009447945863532721 
-0.002969918259422706 
0.001254561182273824 
0.0006944489140287348 
0 
-0.0006944489140287348 
-0.001254561182273824 
0.0003402105147154459 
0.0001283758398567192 
0 
-0.0001283758398567192 
-0.0003402105147154459 
-0.0007553515011887399 
-0.0003345630393437673 
0 
0.0003345630393437673 
0.0007553515011887399 
0.0008537589601553041 
0.0004030699722009297 
0 
-0.0004030699722009297 
-0.0008537589601553041 
-5.705988766808285e-05 
-4.667503786752518e-05 
0 
4.667503786752518e-05 
5.705988766808285e-05 
0.0005204656696794196 
0.0004644916417027271 
0 
-0.0004644916417027271 
-0.0005204656696794196 
-0.0007148265233622296 
1.248660010150462e-05 
0 
-1.248660010150462e-05 
0.0007148265233622296 
-0.0003373802345518915 
0.0004704042127526177 
0 
-0.0004704042127526177 
0.0003373802345518915 
0.0001975661689675708 
0.0004107350797474759 
0 
-0.0004107350797474759 
-0.0001975661689675708 
0.0003631691470420018 
0.0004922151705022154 
0 
-0.0004922151705022154 
-0.0003631691470420018 
-0.0009752243495537292 
-0.000392513421211346 
0 
0.000392513421211346 
0.0009752243495537292 
0.000158119736911187 
-0.0009811067794103547 
0 
0.0009811067794103547 
-0.000158119736911187 
-6.767424416724991e-05 
-0.000193739789948153 
0 
0.000193739789948153 
6.767424416724991e-05 
0.0003427102911282645 
0.0004836285131526903 
0 
-0.0004836285131526903 
-0.0003427102911282645 
-0.000684435403729621 
-6.836718665133655e-05 
0 
6.836718665133655e-05 
0.000684435403729621 
0.003496122229831849 
0.001551811294966793 
0 
-0.001551811294966793 
-0.003496122229831849 
0.0007837217238965039 
0.0005131948356149356 
0 
-0.0005131948356149356 
-0.0007837217238965039 
0.0004473402090841082 
0.000406885889112134 
0 
-0.000406885889112134 
-0.0004473402090841082 
-0.0008219500631967765 
-0.0001189742817814578 
0 
0.0001189742817814578 
0.0008219500631967765 
-0.0003709709879819562 
9.950236182114058e-05 
0 
-9.950236182114058e-05 
0.0003709709879819562 
-0.0001630079525096757 
0.0003285427512202659 
0 
-0.0003285427512202659 
0.0001630079525096757 
-0.0004721434262833298 
0.0001060030174737266 
0 
-0.0001060030174737266 
0.0004721434262833298 
-0.001380095405840803 
-0.0004110931082398 
0 
0.0004110931082398 
0.001380095405840803 
-0.0005481020683410641 
0.0003096339844827744 
0 
-0.0003096339844827744 
0.0005481020683410641 
-0.0005466678294287644 
-0.0001645512338089459 
0 
0.0001645512338089459 
0.0005466678294287644 
-0.001309518934216957 
-0.0005072771897172027 
0 
0.0005072771897172027 
0.001309518934216957 
-0.000350638983494289 
-0.0003234731576877442 
0 
0.0003234731576877442 
0.000350638983494289 
-0.0001639386870878635 
-0.001122276746973317 
0 
0.001122276746973317 
0.0001639386870878635 
0.0002076043022256675 
0.0001104582724903588 
0 
-0.0001104582724903588 
-0.0002076043022256675 
0.0009074327978115761 
0.0004706137542565489 
0 
-0.0004706137542565489 
-0.0009074327978115761 
0.0003885667398308906 
0.000177274058747915 
0 
-0.000177274058747915 
-0.0003885667398308906 
0.001792360624734376 
0.0003111044521629392 
0 
-0.0003111044521629392 
-0.001792360624734376 
0.0005985198513559428 
0.0002835205104104221 
0 
-0.0002835205104104221 
-0.0005985198513559428 
-0.000640765436324285 
-0.0001880901598280985 
0 
0.0001880901598280985 
0.000640765436324285 
6.545504592494683e-05 
0.0002607711212150526 
0 
-0.0002607711212150526 
-6.545504592494683e-05 
0.0009045745083943689 
0.000389562136415846 
0 
-0.000389562136415846 
-0.0009045745083943689 
0.001188524123566545 
0.0003138089286184415 
0 
-0.0003138089286184415 
-0.001188524123566545 
0.0008621219473309628 
0.0003755522562664036 
0 
-0.0003755522562664036 
-0.0008621219473309628 
-0.0001508878842557561 
-0.0003333742581013367 
0 
0.0003333742581013367 
0.0001508878842557561 
0.001223370572777612 
0.0006456972570161775 
0 
-0.0006456972570161775 
-0.001223370572777612 
0.0009301401969369861 
6.930897998500327e-05 
0 
-6.930897998500327e-05 
-0.0009301401969369861 
0.0008140911301966368 
0.0002588525186981898 
0 
-0.0002588525186981898 
-0.0008140911301966368 
-0.001787475193158762 
-0.000241692495233333 
0 
0.000241692495233333 
0.001787475193158762 
7.693778779476813e-05 
-0.0008482664208187696 
0 
0.0008482664208187696 
-7.693778779476813e-05 
-0.0004536589525064731 
-0.0004470295470597446 
0 
0.0004470295470597446 
0.0004536589525064731 
0.001891941685026914 
0.0003840925268628079 
0 
-0.0003840925268628079 
-0.001891941685026914 
0.001328767613635143 
0.0004570683934560006 
0 
-0.0004570683934560006 
-0.001328767613635143 
0.002145690406404274 
0.0003013446088282934 
0 
-0.0003013446088282934 
-0.002145690406404274 
0.0008090192896478929 
3.922876669108114e-05 
0 
-3.922876669108114e-05 
-0.0008090192896478929 
0.0003902016407962187 
-0.0001286524757047919 
0 
0.0001286524757047919 
-0.0003902016407962187 
0.001359326514824291 
0.0004421739701113197 
0 
-0.0004421739701113197 
-0.001359326514824291 
0.001091745591447746 
0.0004290151881181837 
0 
-0.0004290151881181837 
-0.001091745591447746 
0.00171836259093385 
0.0008606970544997977 
0 
-0.0008606970544997977 
-0.00171836259093385 
0.001333580549971856 
0.0008823280748117 
0 
-0.0008823280748117 
-0.001333580549971856 
0.0006124594743079416 
0.0004686691982565004 
0 
-0.0004686691982565004 
-0.0006124594743079416 
0.002361934403851462 
0.001547367327395189 
0 
-0.001547367327395189 
-0.002361934403851462 
0.0005079230446623546 
-7.745169909852507e-06 
0 
7.745169909852507e-06 
-0.0005079230446623546 
0.0008213708986665194 
8.30138392861393e-05 
0 
-8.30138392861393e-05 
-0.0008213708986665194 
-0.001001600431719142 
-0.0002090388318763418 
0 
0.0002090388318763418 
0.001001600431719142 
-0.001721640366263523 
-0.001291599144898373 
0 
0.001291599144898373 
0.001721640366263523 
-0.0004269815503028588 
-0.0003358147982220774 
0 
0.0003358147982220774 
0.0004269815503028588 
0.001580872969289346 
0.0007076124279057894 
0 
-0.0007076124279057894 
-0.001580872969289346 
0.002102781702164179 
0.00096022292296569 
0 
-0.00096022292296569 
-0.002102781702164179 
0.002992823907977828 
0.001056743155283999 
0 
-0.001056743155283999 
-0.002992823907977828 
0.001590465613380378 
0.0008608282930129833 
0 
-0.0008608282930129833 
-0.001590465613380378 
0.0008823534714779032 
0.0005713886715036041 
0 
-0.0005713886715036041 
-0.0008823534714779032 
0.0007086362629577156 
0.0002666366267211424 
0 
-0.0002666366267211424 
-0.0007086362629577156 
0.001907652501044896 
0.0005455327189410117 
0 
-0.0005455327189410117 
-0.001907652501044896 
0.003100451671390796 
0.001427333361450868 
0 
-0.001427333361450868 
-0.003100451671390796 
0.002051838682965622 
0.0006123495474178163 
0 
-0.0006123495474178163 
-0.002051838682965622 
0.00118012332733269 
0.0005938063271635984 
0 
-0.0005938063271635984 
-0.00118012332733269 
0.002362884176490188 
0.001700450692334825 
0 
-0.001700450692334825 
-0.002362884176490188 
-0.0004332057730966805 
-0.0008162669943358028 
0 
0.0008162669943358028 
0.0004332057730966805 
0.000636937767855851 
-0.0005044889987652347 
0 
0.0005044889987652347 
-0.000636937767855851 
-0.001221299303961457 
-0.0008333441783354126 
0 
0.0008333441783354126 
0.001221299303961457 
-0.001916987360100806 
-0.001658093428652977 
0 
0.001658093428652977 
0.001916987360100806 
2.804530345871186e-05 
-0.0002109395701435075 
0 
0.0002109395701435075 
-2.804530345871186e-05 
0.001399200605982651 
0.0006849966014400977 
0 
-0.0006849966014400977 
-0.001399200605982651 
0.001779847660597662 
0.0007662578287323012 
0 
-0.0007662578287323012 
-0.001779847660597662 
0.002341722034396192 
0.001376033207340844 
0 
-0.001376033207340844 
-0.002341722034396192 
0.001126312107013421 
0.0005896767841761242 
0 
-0.0005896767841761242 
-0.001126312107013421 
0.002086654211361949 
0.0005376868997058715 
0 
-0.0005376868997058715 
-0.002086654211361949 
0.0009727901785317951 
0.0006107557208471737 
0 
-0.0006107557208471737 
-0.0009727901785317951 
0.001066567801489824 
-4.828330157412569e-05 
0 
4.828330157412569e-05 
-0.001066567801489824 
0.0006062263632356346 
-0.0003252327493003971 
0 
0.0003252327493003971 
-0.0006062263632356346 
0.001175892760415774 
0.0001000636165864297 
0 
-0.0001000636165864297 
-0.001175892760415774 
0.0007800933953492215 
-0.0001226982614993855 
0 
0.0001226982614993855 
-0.0007800933953492215 
-0.0007901486205423488 
-0.0009278272607872166 
0 
0.0009278272607872166 
0.0007901486205423488 
-0.000383434142755997 
-0.0005027736098551271 
0 
0.0005027736098551271 
0.000383434142755997 
-0.0001260241113622767 
-0.0005292198097745945 
0 
0.0005292198097745945 
0.0001260241113622767 
0.00061704707204245 
0.0002771281197236095 
0 
-0.0002771281197236095 
-0.00061704707204245 
-0.0002213699512528606 
-0.0007028263308147747 
0 
0.0007028263308147747 
0.0002213699512528606 
0.0001203600292692724 
-0.0002012850584772862 
0 
0.0002012850584772862 
-0.0001203600292692724 
0.001252850061497844 
0.0007033330239969936 
0 
-0.0007033330239969936 
-0.001252850061497844 
0.002407167914856746 
0.001187867881444473 
0 
-0.001187867881444473 
-0.002407167914856746 
0.001321856873133526 
0.00032122177142122 
0 
-0.00032122177142122 
-0.001321856873133526 
0.001046062580817826 
7.726250501994654e-05 
0 
-7.726250501994654e-05 
-0.001046062580817826 
0.002237778693333007 
0.001095845273321519 
0 
-0.001095845273321519 
-0.002237778693333007 
0.001401803002100649 
0.000809747823106341 
0 
-0.000809747823106341 
-0.001401803002100649 
0.001040066365791562 
-0.0002007327329240071 
0 
0.0002007327329240071 
-0.001040066365791562 
0.0001961954271417923 
-0.0001910262284018291 
0 
0.0001910262284018291 
-0.0001961954271417923 
-0.0005200150137531459 
-0.0007223656492674002 
0 
0.0007223656492674002 
0.0005200150137531459 
-0.001569176243918677 
-0.0009419853742272352 
0 
0.0009419853742272352 
0.001569176243918677 
0.0004261379662550933 
0.0002730342184796354 
0 
-0.0002730342184796354 
-0.0004261379662550933 
-0.0001161033401021894 
-0.001086370331211786 
0 
0.001086370331211786 
0.0001161033401021894 
-0.0008600985013107955 
-0.001057121033104145 
0 
0.001057121033104145 
0.0008600985013107955 
0.0007608876567744781 
0.0005599620697791345 
0 
-0.0005599620697791345 
-0.0007608876567744781 
-0.0005739465075684928 
-0.0004223696407802905 
0 
0.0004223696407802905 
0.0005739465075684928 
0.0003351869545104757 
9.587565647810172e-05 
0 
-9.587565647810172e-05 
-0.0003351869545104757 
0.001085370262061021 
0.0001973633595564899 
0 
-0.0001973633595564899 
-0.001085370262061021 
0.00142056699903052 
0.0010214734612608 
0 
-0.0010214734612608 
-0.00142056699903052 
0.001003771780611645 
0.000780872309464572 
0 
-0.000780872309464572 
-0.001003771780611645 
0.001532160950472565 
0.0002712946302491193 
0 
-0.0002712946302491193 
-0.001532160950472565 
0.001958845614449716 
0.001190985400921723 
0 
-0.001190985400921723 
-0.001958845614449716 
-0.0004492309454869604 
2.948505419706275e-05 
0 
-2.948505419706275e-05 
0.0004492309454869604 
0.0001218126250052575 
-0.0002113788035264378 
0 
0.0002113788035264378 
-0.0001218126250052575 
0.001220051076548544 
0.0004773074118981603 
0 
-0.0004773074118981603 
-0.001220051076548544 
-4.017594137852777e-05 
7.635269636752514e-05 
0 
-7.635269636752514e-05 
4.017594137852777e-05 
-0.0006776301502703502 
-0.0006481704728002561 
0 
0.0006481704728002561 
0.0006776301502703502 
0.0003068433556821661 
0.0001683157833262985 
0 
-0.0001683157833262985 
-0.0003068433556821661 
-7.172101180656289e-05 
-0.0006009754836787493 
0 
0.0006009754836787493 
7.172101180656289e-05 
0.0006933606487557074 
0.0002853498844543394 
0 
-0.0002853498844543394 
-0.0006933606487557074 
0.0006533947540538899 
0.0002023387872852337 
0 
-0.0002023387872852337 
-0.0006533947540538899 
-0.0002155075156014805 
-0.0006403638875997619 
0 
0.0006403638875997619 
0.0002155075156014805 
0.0006445497682197966 
0.0002796129864743364 
0 
-0.0002796129864743364 
-0.0006445497682197966 
0.0005673905401840922 
0.0001874374843449224 
0 
-0.0001874374843449224 
-0.0005673905401840922 
0.0008754624963308492 
0.0002154969395942704 
0 
-0.0002154969395942704 
-0.0008754624963308492 
0.0002279343421255887 
-0.0002684360089865035 
0 
0.0002684360089865035 
-0.0002279343421255887 
0.0002160069245970229 
7.010395726817472e-05 
0 
-7.010395726817472e-05 
-0.0002160069245970229 
0.001771366119059468 
0.001349205117804773 
0 
-0.001349205117804773 
-0.001771366119059468 
0.0007643538126287636 
0.000223901155239566 
0 
-0.000223901155239566 
-0.0007643538126287636 
-0.0002749444581796678 
-0.000621071198675491 
0 
0.000621071198675491 
0.0002749444581796678 
-0.0004612123965573548 
-0.0001278070254663043 
0 
0.0001278070254663043 
0.0004612123965573548 
-0.0001389843805828368 
-0.0004136502084338159 
0 
0.0004136502084338159 
0.0001389843805828368 
0.0003026861174813408 
0.0001801842755278444 
0 
-0.0001801842755278444 
-0.0003026861174813408 
0.001058449829055802 
0.0004443036036599781 
0 
-0.0004443036036599781 
-0.001058449829055802 
-0.001345807781776241 
-0.001168709302391788 
0 
0.001168709302391788 
0.001345807781776241 
0.0003198343347015346 
-0.0003207470749952461 
0 
0.0003207470749952461 
-0.0003198343347015346 
-0.001015573194657088 
-0.0004456139104272338 
0 
0.0004456139104272338 
0.001015573194657088 
-0.0003006243074320617 
-0.0005824479553411283 
0 
0.0005824479553411283 
0.0003006243074320617 
0.001253331415301876 
0.0002057815652939876 
0 
-0.0002057815652939876 
-0.001253331415301876 
0.001934887127065599 
0.001075986449257407 
0 
-0.001075986449257407 
-0.001934887127065599 
0.0002020841127455406 
0.0002193601822877567 
0 
-0.0002193601822877567 
-0.0002020841127455406 
0.00170719984070391 
0.0003689596718150042 
0 
-0.0003689596718150042 
-0.00170719984070391 
0.0001634163167651422 
0.0003222025579632637 
0 
-0.0003222025579632637 
-0.0001634163167651422 
0.0008965284793577811 
0.0002712176447693581 
0 
-0.0002712176447693581 
-0.0008965284793577811 
5.874643435013395e-05 
-0.0002360116517093925 
0 
0.0002360116517093925 
-5.874643435013395e-05 
-0.00061600826438333 
-0.0004879934281347902 
0 
0.0004879934281347902 
0.00061600826438333 
0.0001219321631499675 
-0.000185279750908554 
0 
0.000185279750908554 
-0.0001219321631499675 
-0.001310145355150359 
-0.001232003800847577 
0 
0.001232003800847577 
0.001310145355150359 
-0.0007618827698011425 
-0.0006032226114442814 
0 
0.0006032226114442814 
0.0007618827698011425 
0.0009968100545906223 
0.000331019159500794 
0 
-0.000331019159500794 
-0.0009968100545906223 
0.0003775232362813674 
-0.0001648669608419042 
0 
0.0001648669608419042 
-0.0003775232362813674 
0.0008162036247730847 
-0.0001267539968551239 
0 
0.0001267539968551239 
-0.0008162036247730847 
0.0003873607850186023 
0.0001052945392495545 
0 
-0.0001052945392495545 
-0.0003873607850186023 
0.001224203252677805 
0.0004424240547960893 
0 
-0.0004424240547960893 
-0.001224203252677805 
0.001593460305141451 
0.001031412984629758 
0 
-0.001031412984629758 
-0.001593460305141451 
0.001543577978997611 
0.0008349843344585213 
0 
-0.0008349843344585213 
-0.001543577978997611 
0.0001906163740742148 
0.0002388346875440114 
0 
-0.0002388346875440114 
-0.0001906163740742148 
0.0007609374847894993 
0.0001662948130903411 
0 
-0.0001662948130903411 
-0.0007609374847894993 
0.0003669958195758227 
8.213700981218343e-05 
0 
-8.213700981218343e-05 
-0.0003669958195758227 
0.0004937855094105011 
-1.803743774204868e-05 
0 
1.803743774204868e-05 
-0.0004937855094105011 
0.001700769274232805 
0.0005915795922521175 
0 
-0.0005915795922521175 
-0.001700769274232805 
-0.0001242752122717853 
-0.0007711961356024913 
0 
0.0007711961356024913 
0.0001242752122717853 
-0.0004791265259370735 
-0.001143899270420925 
0 
0.001143899270420925 
0.0004791265259370735 
0.0002076538971256801 
-7.02818185964782e-05 
0 
7.02818185964782e-05 
-0.0002076538971256801 
-0.001569730139589956 
-0.0008788857976903909 
0 
0.0008788857976903909 
0.001569730139589956 
8.374231965732041e-05 
-0.0002834458945727417 
0 
0.0002834458945727417 
-8.374231965732041e-05 
-0.0004380939191908952 
-0.0006640413925305297 
0 
0.0006640413925305297 
0.0004380939191908952 
0.001185984955818883 
0.0003351742677501285 
0 
-0.0003351742677501285 
-0.001185984955818883 
0.001716263052753716 
0.0003059545941042424 
0 
-0.0003059545941042424 
-0.001716263052753716 
-0.0001427329418150268 
-0.0009629231936743806 
0 
0.0009629231936743806 
0.0001427329418150268 
0.0006714345909342923 
0.0002352112969972967 
0 
-0.0002352112969972967 
-0.0006714345909342923 
-0.0005668476422957439 
-0.000801233483054546 
0 
0.000801233483054546 
0.0005668476422957439 
0.001042176253011265 
0.0006077320957627837 
0 
-0.0006077320957627837 
-0.001042176253011265 
0.0009911671958478527 
0.001005842061622814 
0 
-0.001005842061622814 
-0.0009911671958478527 
0.0002002195500482017 
-0.000178065398756453 
0 
0.000178065398756453 
-0.0002002195500482017 
0.0001516134759386658 
0.000421035302172967 
0 
-0.000421035302172967 
-0.0001516134759386658 
0.0006992758134780319 
0.0006586628734689676 
0 
-0.0006586628734689676 
-0.0006992758134780319 
-0.0002188333083632762 
-0.0007062410386103588 
0 
0.0007062410386103588 
0.0002188333083632762 
0.0005207999800798647 
-2.880267173061881e-05 
0 
2.880267173061881e-05 
-0.0005207999800798647 
0.0004295367024899086 
0.0002874037155113286 
0 
-0.0002874037155113286 
-0.0004295367024899086 
0.0006450743436576463 
0.0005070660754685124 
0 
-0.0005070660754685124 
-0.0006450743436576463 
0.00199221472032023 
0.00133212449291586 
0 
-0.00133212449291586 
-0.00199221472032023 
0.0006947539386949258 
-0.0001103476751330155 
0 
0.0001103476751330155 
-0.0006947539386949258 
0.00162601721380366 
0.0003193542768115452 
0 
-0.0003193542768115452 
-0.00162601721380366 
0.001377171254838773 
0.001004772502209795 
0 
-0.001004772502209795 
-0.001377171254838773 
-0.001327533522576736 
-0.001700212759285813 
0 
0.001700212759285813 
0.001327533522576736 
-0.000335511379953973 
-0.000738949084609509 
0 
0.000738949084609509 
0.000335511379953973 
2.369943829380463e-05 
-0.0008045085760605391 
0 
0.0008045085760605391 
-2.369943829380463e-05 
0.001004929323706095 
-0.0002000982058714967 
0 
0.0002000982058714967 
-0.001004929323706095 
-0.0002165913810560313 
-0.0008482773120691945 
0 
0.0008482773120691945 
0.0002165913810560313 
-0.001801093304384263 
-0.001237927063294645 
0 
0.001237927063294645 
0.001801093304384263 
0.0007313136207328749 
-0.0004388571571134677 
0 
0.0004388571571134677 
-0.0007313136207328749 
-0.0004207910166986606 
-0.0007063008003167292 
0 
0.0007063008003167292 
0.0004207910166986606 
-0.001151391366593593 
-0.00116059191977826 
0 
0.00116059191977826 
0.001151391366593593 
-0.0005970738503577062 
-0.001108255454212955 
0 
0.001108255454212955 
0.0005970738503577062 
-0.001247629885694578 
-0.001524870039516673 
0 
0.001524870039516673 
0.001247629885694578 
-0.0006922156418547498 
-0.0005386263085346474 
0 
0.0005386263085346474 
0.0006922156418547498 
0.0002731958732576678 
0.0001122329678696462 
0 
-0.0001122329678696462 
-0.0002731958732576678 
-0.002146823903060769 
-0.002278142061327728 
0 
0.002278142061327728 
0.002146823903060769 
-0.000811574027350643 
-0.0008134002822751971 
0 
0.0008134002822751971 
0.000811574027350643 
-0.001675253263864356 
-0.001359308539667182 
0 
0.001359308539667182 
0.001675253263864356 
-0.001896022545287963 
-0.001930953060934764 
0 
0.001930953060934764 
0.001896022545287963 
0.0006351704178628437 
-0.0002740717429309216 
0 
0.0002740717429309216 
-0.0006351704178628437 
0.001149215700713663 
-0.0001017398180790091 
0 
0.0001017398180790091 
-0.001149215700713663 
0.0002198273817153124 
-0.0001248026309831591 
0 
0.0001248026309831591 
-0.0002198273817153124 
0.0006120031334378233 
-0.0002667849999855437 
0 
0.0002667849999855437 
-0.0006120031334378233 
-0.001062133029845301 
-0.001557723392274092 
0 
0.001557723392274092 
0.001062133029845301 
-0.0004021258251306782 
-0.0008080028931820716 
0 
0.0008080028931820716 
0.0004021258251306782 
0.001765773135417924 
0.0005710034980536192 
0 
-0.0005710034980536192 
-0.001765773135417924 
-0.00160778008295663 
-0.001443713175863166 
0 
0.001443713175863166 
0.00160778008295663 
0.0001463390524012355 
-0.0003842631749738482 
0 
0.0003842631749738482 
-0.0001463390524012355 
-0.0003739615141909312 
-0.001463404205684519 
0 
0.001463404205684519 
0.0003739615141909312 
-0.0001492381002068186 
-0.0001114718864999824 
0 
0.0001114718864999824 
0.0001492381002068186 
0.0002690815622583617 
-0.0004697465151026629 
0 
0.0004697465151026629 
-0.0002690815622583617 
-0.001210607332555293 
-0.00107929298463276 
0 
0.00107929298463276 
0.001210607332555293 
-0.0006584583746028022 
-0.0007022919736316542 
0 
0.0007022919736316542 
0.0006584583746028022 
-7.478635695941207e-06 
-0.0004044886543783126 
0 
0.0004044886543783126 
7.478635695941207e-06 
-0.001746429930696845 
-0.001856174358114976 
0 
0.001856174358114976 
0.001746429930696845 
-0.001008848325633708 
-0.0006446510635437362 
0 
0.0006446510635437362 
0.001008848325633708 
-0.0005235568669253667 
-0.0003026989798156813 
0 
0.0003026989798156813 
0.0005235568669253667 
0.0007754129946042006 
-7.942787045493797e-05 
0 
7.942787045493797e-05 
-0.0007754129946042006 
-0.0004363908215712968 
-0.0005167599744362007 
0 
0.0005167599744362007 
0.0004363908215712968 
3.120665217191094e-05 
-0.0004222680202615249 
0 
0.0004222680202615249 
-3.120665217191094e-05 
0.0006619345685060935 
0.0001275306200562472 
0 
-0.0001275306200562472 
-0.0006619345685060935 
0.0009016942788395754 
-3.848120771504217e-05 
0 
3.848120771504217e-05 
-0.0009016942788395754 
0.001008696442272016 
6.715217704802243e-05 
0 
-6.715217704802243e-05 
-0.001008696442272016 
-0.0004974581740890003 
-0.0009127341035488694 
0 
0.0009127341035488694 
0.0004974581740890003 
-0.002188205826598214 
-0.001477839112993357 
0 
0.001477839112993357 
0.002188205826598214 
-0.0003331863454471268 
-0.0001758619700063385 
0 
0.0001758619700063385 
0.0003331863454471268 
-0.001628013986847507 
-0.001552784306623379 
0 
0.001552784306623379 
0.001628013986847507 
-0.001410203556495643 
-0.001433714606818117 
0 
0.001433714606818117 
0.001410203556495643 
-0.001018995289195516 
-0.001206182823343202 
0 
0.001206182823343202 
0.001018995289195516 
-0.0004412161043180905 
-0.0006378168190590479 
0 
0.0006378168190590479 
0.0004412161043180905 
-0.0009945572788278849 
-0.001533183582014721 
0 
0.001533183582014721 
0.0009945572788278849 
0.001001579618351264 
5.193840813197811e-05 
0 
-5.193840813197811e-05 
-0.001001579618351264 
0.001453295368793376 
0.000584007583390966 
0 
-0.000584007583390966 
-0.001453295368793376 
0.001419368558415198 
0.0002104825258762253 
0 
-0.0002104825258762253 
-0.001419368558415198 
0.00125356199619536 
0.0001148757076077505 
0 
-0.0001148757076077505 
-0.00125356199619536 
-0.001311652439963104 
-0.001138468854555515 
0 
0.001138468854555515 
0.001311652439963104 
0.0004214808773020871 
-0.0001999222443051904 
0 
0.0001999222443051904 
-0.0004214808773020871 
0.001049735065690823 
0.0008067778638760217 
0 
-0.0008067778638760217 
-0.001049735065690823 
0.00125791653823715 
0.0005269441478055286 
0 
-0.0005269441478055286 
-0.00125791653823715 
-4.097500699030666e-05 
-0.0008569216648784333 
0 
0.0008569216648784333 
4.097500699030666e-05 
-0.0006184880340656954 
-0.0009693244747661162 
0 
0.0009693244747661162 
0.0006184880340656954 
0.0006665799812247182 
-6.074895268331677e-06 
0 
6.074895268331677e-06 
-0.0006665799812247182 
0.0002832386286961513 
-0.0001218143431237309 
0 
0.0001218143431237309 
-0.0002832386286961513 
-0.0009273032282829609 
-0.001142080095165048 
0 
0.001142080095165048 
0.0009273032282829609 
0.0006174793494537419 
-0.0002713814472636035 
0 
0.0002713814472636035 
-0.0006174793494537419 
0.0006596551437234792 
-0.0004645733939673275 
0 
0.0004645733939673275 
-0.0006596551437234792 
-6.337948292048171e-05 
-0.0005359091174638118 
0 
0.0005359091174638118 
6.337948292048171e-05 
-0.0002446956023858387 
-0.0003991839626922079 
0 
0.0003991839626922079 
0.0002446956023858387 
0.001764871151560794 
0.0007073716243316833 
0 
-0.0007073716243316833 
-0.001764871151560794 
0.001174523250876437 
-2.011228405169795e-05 
0 
2.011228405169795e-05 
-0.001174523250876437 
0.001497934244120788 
3.332594873856676e-05 
0 
-3.332594873856676e-05 
-0.001497934244120788 
-0.0001426717576925305 
-0.0003302003474072378 
0 
0.0003302003474072378 
0.0001426717576925305 
-0.0003933455016179036 
-0.0006184507687568454 
0 
0.0006184507687568454 
0.0003933455016179036 
8.708698587668344e-05 
-0.0004417805302215031 
0 
0.0004417805302215031 
-8.708698587668344e-05 
-0.0003145337210626047 
-0.0004176234434230562 
0 
0.0004176234434230562 
0.0003145337210626047 
0.0002418361207539193 
-0.000849624146970477 
0 
0.000849624146970477 
-0.0002418361207539193 
0.0006295428118850638 
-0.0007836759611573899 
0 
0.0007836759611573899 
-0.0006295428118850638 
-0.000900458692796189 
-0.0008182711519085098 
0 
0.0008182711519085098 
0.000900458692796189 
0.001132621930566439 
-0.0001365298770001456 
0 
0.0001365298770001456 
-0.001132621930566439 
-0.0009804484618532608 
-0.001078180501305316 
0 
0.001078180501305316 
0.0009804484618532608 
-0.0009092005410511343 
-0.001046456064803123 
0 
0.001046456064803123 
0.0009092005410511343 
0.001022821370203107 
0.0004690849217215757 
0 
-0.0004690849217215757 
-0.001022821370203107 
0.0002899766200953297 
-0.0007280782054734069 
0 
0.0007280782054734069 
-0.0002899766200953297 
0.0009585323255251583 
0.0002040821966005805 
0 
-0.0002040821966005805 
-0.0009585323255251583 
-0.0004435509466185264 
-0.0007579052245284788 
0 
0.0007579052245284788 
0.0004435509466185264 
0.0003464918311541208 
-0.000171939289622975 
0 
0.000171939289622975 
-0.0003464918311541208 
0.0002946518239429297 
-0.0004715511718725144 
0 
0.0004715511718725144 
-0.0002946518239429297 
-0.0003811565206000575 
-0.001040439384375921 
0 
0.001040439384375921 
0.0003811565206000575 
0.001856021025081878 
0.0007880434449545013 
0 
-0.0007880434449545013 
-0.001856021025081878 
0.0008788015267022027 
0.0003032704984569946 
0 
-0.0003032704984569946 
-0.0008788015267022027 
0.0001931689099441312 
-0.0007116698537510106 
0 
0.0007116698537510106 
-0.0001931689099441312 
-0.0004225294333651971 
-0.0009586552951554369 
0 
0.0009586552951554369 
0.0004225294333651971 
-0.002106583820788293 
-0.001475277619026181 
0 
0.001475277619026181 
0.002106583820788293 
-0.002449683847967062 
-0.001602475612237492 
0 
0.001602475612237492 
0.002449683847967062 
-0.0005018653502066433 
-4.242629842569975e-05 
0 
4.242629842569975e-05 
0.0005018653502066433 
-0.001539803828720445 
-0.001964476670361401 
0 
0.001964476670361401 
0.001539803828720445 
-0.001929796434376841 
-0.001769268587619379 
0 
0.001769268587619379 
0.001929796434376841 
-0.001782191055671345 
-0.001393333102160995 
0 
0.001393333102160995 
0.001782191055671345 
-0.001009374362457668 
-0.001318614370647205 
0 
0.001318614370647205 
0.001009374362457668 
-0.0008434230709896482 
-0.0008475500745351349 
0 
0.0008475500745351349 
0.0008434230709896482 
0.000490047061136317 
-0.000356269559867015 
0 
0.000356269559867015 
-0.000490047061136317 
-0.0004943240209640077 
-0.0009162435212844028 
0 
0.0009162435212844028 
0.0004943240209640077 
0.0005988219301535545 
4.586256001205927e-05 
0 
-4.586256001205927e-05 
-0.0005988219301535545 
-0.0005986106306735921 
-0.0005183999875066571 
0 
0.0005183999875066571 
0.0005986106306735921 
0.001577561249588149 
0.0005657120341811921 
0 
-0.0005657120341811921 
-0.001577561249588149 
0.00163690391671223 
0.0004901592842638017 
0 
-0.0004901592842638017 
-0.00163690391671223 
0.0002563064150801666 
-0.0001229125389473776 
0 
0.0001229125389473776 
-0.0002563064150801666 
-0.001585501662605069 
-0.001212096269315504 
0 
0.001212096269315504 
0.001585501662605069 
-0.0006655213797413672 
-0.00106199099544926 
0 
0.00106199099544926 
0.0006655213797413672 
-0.001211752913869204 
-0.001163690679288382 
0 
0.001163690679288382 
0.001211752913869204 
0.001092119417893706 
0.0002444928583793041 
0 
-0.0002444928583793041 
-0.001092119417893706 
0.001161458062976979 
-0.0005969168425820345 
0 
0.0005969168425820345 
-0.001161458062976979 
0.001137093457467108 
0.0002620524723326915 
0 
-0.0002620524723326915 
-0.001137093457467108 
0.001226604542082106 
0.0008086604597652065 
0 
-0.0008086604597652065 
-0.001226604542082106 
-0.001054021122328704 
-0.001027003687514121 
0 
0.001027003687514121 
0.001054021122328704 
-0.002795290127874847 
-0.001408837120737301 
0 
0.001408837120737301 
0.002795290127874847 
-0.002385977764765313 
-0.002192539490660817 
0 
0.002192539490660817 
0.002385977764765313 
7.59402286864605e-06 
-0.000144817496937931 
0 
0.000144817496937931 
-7.59402286864605e-06 
-0.0009726620128800092 
-0.001001838155857002 
0 
0.001001838155857002 
0.0009726620128800092 
0.0002597170507208229 
-0.0004802337434815543 
0 
0.0004802337434815543 
-0.0002597170507208229 
-0.001152006619529322 
-0.001021939071716022 
0 
0.001021939071716022 
0.001152006619529322 
-0.001614388496433436 
-0.0015432873159533 
0 
0.0015432873159533 
0.001614388496433436 
-0.0008935099944674841 
-0.0009236948712382474 
0 
0.0009236948712382474 
0.0008935099944674841 
-0.002765215301628603 
-0.002339046167059208 
0 
0.002339046167059208 
0.002765215301628603 
0.0005349218742080596 
-0.0007319243715942078 
0 
0.0007319243715942078 
-0.0005349218742080596 
-0.000566713171851258 
-0.0006568154550067197 
0 
0.0006568154550067197 
0.000566713171851258 
-6.117728640207893e-05 
-0.0003307599362042795 
0 
0.0003307599362042795 
6.117728640207893e-05 
-0.001615448935423082 
-0.001681133259251013 
0 
0.001681133259251013 
0.001615448935423082 
-0.00267996462172905 
-0.002062489087098269 
0 
0.002062489087098269 
0.00267996462172905 
-0.0008934397391511901 
-0.0006984215073638136 
0 
0.0006984215073638136 
0.0008934397391511901 
-0.001899549458036784 
-0.001844030559829035 
0 
0.001844030559829035 
0.001899549458036784 
-0.001031675097376808 
-0.000641289764646332 
0 
0.000641289764646332 
0.001031675097376808 
-5.719507754485796e-05 
0.0001065074458517567 
0 
-0.0001065074458517567 
5.719507754485796e-05 
-0.0005729977685163041 
-0.000421659527636466 
0 
0.000421659527636466 
0.0005729977685163041 
-0.0004653271944231756 
-0.0006022517182318549 
0 
0.0006022517182318549 
0.0004653271944231756 
0.0006853214542633967 
-0.0002710315378897111 
0 
0.0002710315378897111 
-0.0006853214542633967 
0.001311714712218326 
-6.37638891218981e-05 
0 
6.37638891218981e-05 
-0.001311714712218326 
0.0003770566581357071 
-0.0001578445156425346 
0 
0.0001578445156425346 
-0.0003770566581357071 
-0.001048758551248727 
-0.001532726527498842 
0 
0.001532726527498842 
0.001048758551248727 
-0.00200049055148028 
-0.001647621587656421 
0 
0.001647621587656421 
0.00200049055148028 
-0.001985386193023751 
-0.001777908137850248 
0 
0.001777908137850248 
0.001985386193023751 
-0.0007665736490258158 
-0.001016418614498327 
0 
0.001016418614498327 
0.0007665736490258158 
-0.002713121378833324 
-0.002142370311237815 
0 
0.002142370311237815 
0.002713121378833324 
0.0004456485268157691 
-1.119979067893044e-05 
0 
1.119979067893044e-05 
-0.0004456485268157691 
-0.0007317546757813285 
-0.0008273364725334875 
0 
0.0008273364725334875 
0.0007317546757813285 
-0.0008857512502564723 
-0.0007017532563892296 
0 
0.0007017532563892296 
0.0008857512502564723 
-0.001031653050162194 
-0.001199159162521719 
0 
0.001199159162521719 
0.001031653050162194 
-0.00145474450132684 
-0.0009889885681801797 
0 
0.0009889885681801797 
0.00145474450132684 
-0.0006385816912217734 
-0.0008633063340542587 
0 
0.0008633063340542587 
0.0006385816912217734 
-0.001723263871520517 
-0.001592385771142722 
0 
0.001592385771142722 
0.001723263871520517 
0.0002465017069664261 
-0.0002720646436102654 
0 
0.0002720646436102654 
-0.0002465017069664261 
0.0008743787062649015 
0.0001615131918752092 
0 
-0.0001615131918752092 
-0.0008743787062649015 
-0.001827228712422192 
-0.001098737336994138 
0 
0.001098737336994138 
0.001827228712422192 
-0.001559080305326234 
-0.001050043011560614 
0 
0.001050043011560614 
0.001559080305326234 
-0.0002769267819309036 
-0.0005961122639096664 
0 
0.0005961122639096664 
0.0002769267819309036 
-0.002032370762190488 
-0.001350654975218932 
0 
0.001350654975218932 
